3 784 256 10 
0.00730627 0.00797048 0.00597786 0.00332103 0.0095203 0.00774908 0.00797048 0.00929889 0.0108487 0.00464945 0.00265683 0.00597786 0.00885609 0.00199262 0.00287823 0.00575646 0.00885609 0.00575646 0.00487085 0.00797048 0.00243542 0.00398524 0.00376384 0.00642066 0.00708487 0.00664207 0.00265683 0.00509225 0.00376384 0.00774908 0.00642066 0.000442804 0.00487085 0.00223215 0.00706808 0.00568179 -0.00913939 -0.0219198 -0.00107361 -0.0122552 -0.0117231 -0.0174866 -0.0161215 -0.0205456 0.00332385 0.000347138 0.00670481 0.00529517 0.0033185 0.00442804 0.00287823 0.00575646 0.00907749 0.00664207 0.00132841 0.00509225 0.00265683 0.00442804 0.0101845 0.00686347 0.00110701 0.00613481 0.0112911 0.0070227 -0.0181318 -0.0246823 0.0131593 0.00826247 0.0301805 0.0332757 0.0285831 0.0520918 0.09156 0.0279107 -0.0524794 -0.0798001 -0.102411 -0.0431115 -0.00414601 0.000483446 0.00819152 0.00177122 0.00575646 0.00619926 0.00841328 0.00752768 0.000664207 0.000221402 0.000671884 0.00892028 0.0028607 -0.0324541 -0.0465415 -0.0302877 -0.0927486 -0.19157 -0.160427 -0.0724877 0.000458401 0.0249536 0.10521 0.0796752 -0.111804 -0.180315 -0.17129 -0.0762272 -0.0231668 -0.00824728 0.000946391 0.0095447 0.000844876 0.00132841 0.000221402 0.00664207 0.00797048 0.00911325 0.00750826 0.004939 -0.00244238 -0.0916916 -0.0657757 -0.0670601 0.0494946 -0.100672 -0.159648 -0.137452 -0.0200687 -0.076481 -0.0249274 0.0366677 0.001269 0.0297409 -0.129188 -0.185878 -0.137758 -0.0971586 -0.0749592 -0.0228708 0.00289724 0.00531365 0.00619926 0.00462076 0.00707914 0.0103315 0.00730239 0.00952061 0.0387425 -0.115322 -0.112468 -0.16384 0.0510846 0.136988 -0.127412 -0.193526 -0.176979 0.0593613 0.158589 0.0628592 0.0373412 0.085247 -0.0116681 -0.168369 -0.166191 -0.32877 -0.220421 -0.014928 0.0126273 0 0.00752768 0.00309963 0.00854908 0.0177775 0.0694002 0.0974096 0.097609 -0.0603099 -0.0787009 -0.254096 -0.166393 -0.02244 -0.140733 -0.0364277 0.128387 -0.0268447 -0.0470655 0.0928199 0.0405935 -0.198799 -0.214662 -0.333187 -0.300846 -0.22385 -0.0933927 0.0450653 -0.00485421 0.00380543 0.0095203 0.00277109 0.0347513 0.0799951 0.174648 0.111279 0.0557063 0.0243319 -0.0777189 0.0608309 0.248519 0.0293519 0.0802909 0.0138627 0.0435537 -0.045766 -0.167525 -0.146219 -0.245001 -0.321498 -0.472621 -0.471261 -0.422219 -0.0934428 -0.022953 -0.0254024 -0.0351371 0.00431473 0.0097417 0.0146556 0.0495782 0.119529 0.164733 0.151177 0.0268024 -0.00284329 -0.0604801 -0.0159735 0.0408098 -0.0665151 0.120193 -0.0365542 -0.186671 -0.0574324 0.124805 0.140084 -0.0827688 -0.0854924 -0.339 -0.40571 -0.355595 -0.148216 -0.116314 -0.0916781 -0.0817199 -0.0279261 0.00248166 0.0178985 -0.000358947 -0.0137778 0.190201 0.119348 0.0116589 -0.116783 -0.154183 -0.205389 -0.255114 -0.254689 -0.0310219 -0.100232 0.0650767 0.106812 0.499047 0.515015 0.247157 0.0903115 -0.330466 -0.192735 -0.0710393 -0.165218 -0.255277 -0.188951 -0.0462831 -0.00264255 0.00693305 0.0107043 -0.0308949 -0.112108 -0.0139962 -0.107878 -0.323777 -0.290066 -0.105867 -0.23186 -0.346735 -0.0211505 -0.0374904 -0.214062 -0.0882149 -0.0267914 0.303337 0.3898 0.166342 -0.0528781 -0.174714 -0.129511 0.00787209 -0.160674 -0.30226 -0.235437 -0.0981321 -0.00918918 0.00643419 0.00689014 -0.0271136 -0.0852856 -0.0716511 -0.213506 -0.344377 -0.148408 -0.296436 -0.288107 0.0643626 -0.0960151 0.104328 -0.344693 -0.356962 -0.126969 0.241038 0.322207 0.132034 -0.22671 0.0123981 -0.0530139 -0.128815 -0.145035 -0.109795 -0.114818 -0.0925595 0.00236765 0.00597786 -0.000589454 -0.00522055 -0.0348377 -0.0929795 -0.227765 -0.25288 -0.504501 -0.35954 -0.0899563 -0.0261948 -0.0120516 -0.0571541 -0.288539 -0.40401 -0.10337 0.13594 0.168898 -0.0815471 -0.204049 -0.104726 -0.0879947 -0.174005 -0.0330495 0.0172509 0.00688067 -0.0181438 0.00885609 0.00199262 0.00324492 0.00849857 0.039285 -0.00380935 -0.0916847 -0.00811373 -0.366701 -0.196968 -0.125721 -0.0844998 0.0575698 0.0141779 -0.0935107 -0.272098 -0.156693 -0.132888 0.265268 0.037191 0.0154731 0.0432973 0.0885296 0.0396217 0.0134428 -0.0311247 -0.00190704 0.00555783 0.00199262 0.0097417 0.000442804 0.0133831 0.0529011 0.0515225 -0.0056038 0.00446989 -0.0790591 -0.137555 0.0267733 -0.124354 -0.0715254 -0.297398 -0.398371 -0.499482 -0.348365 -0.0114712 0.338408 0.21524 0.223153 0.0391458 0.074145 -0.0535716 0.00206339 -0.0539725 0.0143433 -0.00500164 0.00642066 0 0.0101845 0.00368609 0.0782881 0.0596154 0.00098194 0.0898025 0.256087 -0.0660108 0.0863904 0.0853983 -0.03281 -0.326063 -0.420629 -0.518985 -0.0065691 0.180346 0.263181 0.28996 0.327409 0.136898 -0.0166073 -0.0196052 -0.0297785 0.0492782 0.046812 -0.0259508 0.00818217 0 0.0106181 -0.00318937 0.059039 0.109569 -0.0604221 0.194708 0.164418 0.135136 0.129656 0.0101204 0.0251906 -0.0854941 -0.0487022 0.0503239 0.262481 0.093372 0.11495 0.244216 0.312017 0.161467 -0.0114709 -0.0669135 -0.0352469 0.0638503 0.129861 0.032339 0.00603725 0.00774908 0.00642066 0.00175369 0.0564999 0.149011 -0.124913 0.185761 0.122735 0.143481 0.0162471 -0.32819 0.0215231 -0.176466 -0.0609051 0.314508 0.265317 0.238301 0.329385 0.39313 0.17211 0.0941437 -0.00979949 -0.0459106 0.0957749 0.133167 0.107944 0.0131465 0.00783166 0.00509225 0.0018186 -0.00291519 -0.0124454 0.0770555 0.0331864 -0.00296808 0.150274 0.134041 -0.0514287 -0.304756 0.0850328 0.0596638 -0.0259431 0.111519 0.049963 0.0600487 0.157683 0.327557 0.157517 0.0152742 -0.171535 -0.144443 0.0880956 0.178255 0.0800345 0.0474755 0.0224397 0.0101845 0.00760749 0.00615535 -0.0771272 -0.00727471 0.0524694 0.103644 0.0543132 0.15405 0.015224 -0.219463 -0.179698 -0.404972 -0.39308 -0.267099 -0.196895 -0.0252758 0.0689038 0.139255 0.0988209 -0.124006 -0.194775 -0.0323094 0.11801 0.127661 0.0956921 0.0352474 0.0115847 0.00841328 0.0033664 -0.0382159 -0.0885629 -0.101216 -0.00105643 0.0961966 0.0954478 -0.0596034 -0.0474912 -0.251503 -0.198197 -0.0418103 -0.245222 -0.217787 -0.099481 -0.0684523 -0.00308874 -0.110961 -0.0247214 -0.142053 -0.101818 0.0246305 0.0456372 -0.00100285 0.0347415 0.00687348 0.00642066 0 0.00199262 -0.0495071 -0.0428303 -0.0549288 -0.0742316 0.0681384 0.0909199 -0.0669619 -0.15882 -0.256633 -0.113146 -0.0969368 -0.280464 -0.387064 -0.248408 -0.102412 -0.122446 -0.123241 -0.0534653 -0.156354 -0.156115 -0.086077 -0.0440272 -0.0396837 0.0154957 0.012443 0.00907749 0.00154982 0.00332103 -0.0136711 0.00949873 0.0565124 0.0549866 0.0501789 0.00162085 -0.0897349 -0.183402 -0.224158 -0.281888 -0.205317 -0.323807 -0.332217 -0.349826 -0.258724 -0.361308 -0.0303648 -0.0644316 -0.104957 -0.119612 -0.0506595 -0.00131989 0.00754368 0.0130881 0.0053324 0.00464945 0.00442804 0.00262814 0.00242727 0.0531317 0.0491632 0.111728 0.115341 -0.0558742 -0.280892 -0.221844 -3.52962e-05 -0.00737728 -0.090064 -0.368419 -0.455442 -0.327563 -0.222862 -0.206514 0.0689984 -0.157344 -0.0355884 -0.0471403 -0.0130849 0.0154546 0.0191443 0.0119224 0.00111602 0.00752768 0.00907749 0.00553506 0.00110701 0.00354668 0.0491933 0.137921 0.121801 -0.0280512 -0.131499 -0.322348 -0.424888 -0.340174 -0.240431 -0.1968 0.0243496 -0.0415781 -0.159897 -0.285055 -0.180906 0.0193798 -0.0389987 -0.0540872 -0.0149638 -0.00227542 0.00654278 0.00615788 0.00265683 0.00553506 0.00841328 0.00420664 0.00221402 0.00678764 0.00737448 0.0124642 -0.00171601 0.0196442 -0.1186 -0.149718 -0.238178 -0.256376 -0.0863256 -0.0276814 0.00634897 0.0586077 -0.0764172 -0.227185 -0.173528 -0.0945277 -0.130849 -0.0909708 -0.00470495 0.000623585 0.00620338 0.00089644 0.00464945 0.00243542 0.00730627 0.00774908 0.00863469 0.00509225 0.000884741 0.00967652 -0.00152673 0.0618194 0.103429 -0.0284308 -0.0265012 -0.0205541 -0.0313231 -0.0662256 -0.0187298 0.108907 -0.0320019 -0.0313995 -0.0172299 0.0146842 -0.00610338 -0.0163827 0.00980291 0.00261289 0.00794137 0.00110701 0.00442804 0.00398524 0.00243542 0.00929889 0.00708487 0.0101845 0.00642066 0.00464945 0.00442009 0.00734977 0.0718331 0.122059 0.0697407 0.0157894 0.12211 -0.0444306 -0.000354051 -0.0186728 -0.105861 -0.00520326 -0.0121571 0.0263299 0.0084269 0.00307954 0.00199262 0.00487085 0.0104059 0.00531365 0.00708487 0.00774908 0.00708487 0.000885609 0.000885609 0.0095203 0.0106273 0.00797048 0.00885609 0.00619926 0.00199262 0.00265683 0.00265683 0.00730627 0.00907749 0.0106273 0.00509225 0.00531365 0.00487085 0.00487085 0.000885609 0.00774908 0.00464945 0.00154982 0.00332103 0.0104059 0.00464945 0.00575646 0.00420664 0.00398524 0.000221402 0.000664207 0.000664207 0.00730627 0.00154982 0.00624203 0.0325796 0.0190105 0.039776 0.0234038 0.00373082 -0.0103763 0.0158205 -0.0464194 -0.0854883 -0.123533 -0.0123727 -0.0192477 -0.017913 0.0041057 0.00859413 0.00199262 0.00132841 0.00221402 0.00354244 0.00531365 0.00199262 0.00863469 0 0.00619926 0.00199262 0.000664207 0.00686347 0.00817309 0.0263288 0.0031599 -0.0194399 0.00526807 0.0583095 0.022853 -0.0568365 -0.064695 -0.131689 -0.132382 -0.0323053 -0.085547 -0.0715997 -0.0900949 -0.0717762 -0.0741826 -0.0359594 0.00679759 0.00287285 0.00154982 0.0097417 0.00686347 0.00686347 0.000664207 0.00442804 0.00730627 0.00792951 0.00845523 0.171879 0.236919 0.182894 0.0479547 -0.307387 -0.328946 0.213055 0.187167 -0.117016 -0.107568 -0.181958 -0.282192 -0.127936 -0.0975932 -0.107512 -0.1189 -0.0775939 -0.0194556 -0.00952709 0.0017194 0.00300219 0.00575646 0.000885609 0.00597786 0.00199262 0.00882027 0.0218003 0.108162 0.302072 0.367183 0.423643 0.182959 -0.19618 -0.309825 -0.0859418 -0.268423 -0.539923 -0.0353215 0.106549 -0.432025 -0.487571 -0.237862 -0.257252 -0.214402 0.0710665 0.0831804 0.0535292 0.0567812 0.00540857 0.00885609 0.00797048 0.00222915 0.00394755 0.00567773 0.0644953 0.361523 0.413448 0.329714 0.410804 -0.00442691 -0.0361089 0.0779956 0.53485 0.158279 -0.200209 -0.225711 -0.336408 -0.637942 -0.52272 -0.347274 -0.185042 -0.259618 -0.150825 0.0720343 0.101634 0.00338473 -0.0112718 0.0108487 0.00221402 0.00619926 0.00926796 0.0110266 0.0940544 0.439517 0.377189 -0.129376 -0.295256 -0.567204 -0.719777 -0.251977 0.229382 0.237835 -0.17642 -0.0104275 -0.0973359 -0.305596 -0.442632 -0.166143 -0.484219 -0.457403 -0.176751 -0.0511435 -0.0250075 -0.100879 -0.0081481 -0.0145028 0.00354244 0.00572149 -0.000211454 0.0457242 0.2715 0.305445 -0.137499 -0.13334 0.23275 0.177717 0.0929968 0.861806 0.691359 0.224215 0.112683 0.103747 0.421661 0.40415 -0.195406 -0.0466131 -0.219914 -0.398584 -0.110088 0.0497788 0.00819505 0.0156199 0.0322684 -0.0219278 0.000885609 0.00556076 0.0143348 0.110931 0.304727 0.152623 -0.0782253 0.155114 0.511014 0.512784 0.543054 0.243246 0.152133 0.122362 0.431508 0.518964 0.687028 0.323502 0.0408074 0.453726 0.593903 1.01966 0.517692 0.164134 -0.0885542 -0.04572 0.110564 0.0563162 0.0265931 0.03723 0.0602343 0.21088 0.441941 0.493586 0.380944 0.248155 0.738297 0.520937 0.523402 0.648133 0.765936 1.0558 1.40891 1.8251 1.40898 0.687237 0.627042 0.475772 1.26429 1.58417 0.46281 0.320623 0.127524 0.0568875 0.0485669 0.00406428 0.0339092 0.0508878 0.100644 0.10308 0.407347 0.492836 0.0984162 0.214272 1.09364 0.837186 0.446927 0.543387 0.464856 0.438876 0.839359 0.632717 0.512385 0.356529 0.623166 0.728059 0.924197 0.896182 0.246283 0.0626943 0.325355 0.26697 0.139573 0.00384763 0.0109709 0.0206076 0.112826 0.156996 0.104192 0.130588 -0.530863 -0.0458531 0.203906 -0.121358 -0.543269 -0.294365 -0.523909 -0.821914 -0.326518 -0.665293 -0.36468 0.189567 0.0502867 0.166318 0.209257 -0.353665 -0.568202 -0.327323 -0.0499617 0.230952 0.143874 0.00483595 0.00929889 0.0119508 0.0892496 0.130777 0.0819208 -0.146418 -0.554792 -0.234826 -0.404929 -0.706817 -0.822874 -0.477396 -0.884162 -0.900033 -0.367427 -0.420413 0.10789 -0.214602 -0.219774 -0.42559 -0.517366 -1.04062 -0.938755 -0.433656 -0.0914872 0.017212 0.0309116 0.000442804 0.00531365 -0.000595344 0.018431 0.0568109 0.155324 -0.152315 -0.51893 -0.677753 -0.364093 -0.925385 -1.58804 -1.07753 -0.876198 -0.559674 -0.649086 -0.328718 -0.00682106 -0.711833 -0.652721 -0.494891 -0.498459 -0.732274 -0.930578 -0.62704 -0.321712 -0.067732 -0.00863832 0.00199262 0.0106273 0.00221402 0.031333 0.0746271 0.135873 0.118161 -0.815952 -1.39774 -1.00002 -1.52448 -1.89069 -1.56924 -1.20638 -1.20069 -1.47653 -0.723266 -0.504384 -0.400729 -0.551086 -0.639619 -0.21364 -0.491698 -0.621257 -0.768355 -0.36555 -0.101658 0.0335045 0.00442804 0.00464945 0.00376384 0.00809082 0.0774122 0.285601 0.149099 -0.88151 -1.22892 -1.26024 -1.57168 -1.64255 -1.61877 -1.04423 -1.13737 -0.507967 -0.0515575 0.0413519 0.0146627 -0.496788 -0.728538 -0.294917 -0.220486 -0.487318 -0.665882 -0.363795 -0.0368866 0.0738843 0.00353602 0.00929889 0.00668464 -0.00689057 0.148293 0.427025 0.114474 -0.479427 -0.91516 -1.71365 -1.39272 -1.60317 -1.22417 -0.61072 -0.431188 0.519236 -0.167833 0.395327 0.422464 -0.210249 -0.14481 -0.166347 0.0169377 -0.317321 -0.58619 -0.315026 0.110618 0.0890552 0.0314252 0.00110701 0.000885609 -0.000966762 0.184676 0.439821 0.209706 -0.377362 -0.718108 -1.18497 -1.03229 -1.38947 -1.27428 -0.286405 0.0356101 0.77063 0.934179 0.372214 -0.0877452 -0.12131 -0.683365 -0.952964 -0.218246 -0.62514 -0.365618 -0.0725006 0.0499413 0.0612128 0.0353565 0.00487085 0.00464619 0.0290086 0.143686 0.33397 0.0578032 0.0427461 -0.224025 -0.788619 -1.16521 -1.42836 -1.60482 -0.696884 -0.0271117 0.641555 0.111029 -0.810233 -0.924603 -1.10549 -1.11799 -0.819315 -0.362753 -0.364026 0.0556515 -0.188861 -0.0109536 0.0580754 0.0311275 0.00664207 0.0107067 0.0274078 0.154341 0.374795 0.0695703 0.236125 -0.267987 -0.523381 -1.02608 -1.324 -1.01566 -0.367283 -0.10961 0.504114 -0.112961 -1.23006 -1.46537 -0.665074 -0.626189 -0.392212 0.0642089 0.180512 0.066202 -0.0322239 0.079715 0.0348493 0.00993539 0.00885609 0.00654522 0.0553751 0.171026 0.374489 0.166559 0.0802555 -0.0275643 -0.0693265 -0.601631 -0.680246 0.155378 0.204402 0.0312358 -0.105142 -0.280101 -1.42398 -1.33796 -0.123067 0.0215231 0.139474 0.285181 0.2056 -0.0277477 0.0639589 0.0614972 0.0211662 0.00885609 0.00863469 0.000442804 0.060693 0.190363 0.238183 0.129722 0.0122575 0.211204 0.0752648 -0.501123 -0.412116 0.145688 0.102527 -0.395555 -0.345164 -1.09682 -1.55068 -0.585631 0.342794 0.0416798 0.0739681 0.410747 0.31832 0.0100962 0.0656384 0.0193908 0.00298554 0.00730627 0.000664207 0.00243542 0.0235245 0.106307 0.0757454 0.0400697 0.0603194 0.00887934 -0.352245 -0.359261 0.525196 0.842305 -0.34416 -1.19163 -1.24403 -1.02714 -0.975987 -0.401884 -0.0779149 0.0102852 0.222515 0.0891949 -0.00984572 -0.0627899 0.0329409 -0.00287942 0.00108621 0.00907749 0.00819188 0.00444317 0.00568036 -0.0130654 -0.0266122 -0.120441 -0.130578 0.0193394 0.385752 0.53825 1.3185 1.21653 0.0746014 0.294882 -0.286226 -0.646255 -0.844563 -0.770981 -0.0520721 0.299212 0.150349 -0.0205445 -0.0521581 -0.0515668 0.0423346 0.0281272 0.00331773 0.00797048 0.000442804 0.00553506 0.00642066 0.00683529 -0.0513607 -0.126997 0.000390099 0.213368 0.502941 0.609854 1.19835 1.1332 0.790979 0.617181 0.143357 -0.11233 -0.500434 0.0437474 0.525857 0.554666 0.280353 0.119918 -0.070511 -0.0365408 0.00138164 0.0106654 0.00442804 0.00664207 0.0106273 0.00797048 0.00398524 0.00179421 -0.00323689 0.0448704 0.0193813 0.286069 0.819206 1.49811 1.59582 0.529306 0.266488 0.418096 0.430161 0.415389 -0.0364469 0.0828444 0.350093 0.401935 0.220433 0.0208634 -0.0465762 -0.0151686 -0.000814426 0.00228534 0.00597786 0 0.000664207 0.0104059 0.00708487 0.000664207 0.00777997 0.0319066 0.0398531 0.0595147 0.369573 0.791195 1.35891 0.414624 0.160069 0.0307678 0.479395 0.532366 0.00488234 -0.00387468 0.0406947 0.294893 0.317729 0.0937053 0.00417388 -0.00649454 0.00678283 0.0104059 0 0.0104059 0.00177122 0.00642066 0.0108487 0.00287823 0.00642066 0.00752768 0.00357696 0.00549701 0.0460518 0.0897581 0.174769 0.109206 0.0698235 0.0129759 0.0324325 0.0269038 0.030071 0.0126795 0.0422956 0.186071 0.0706155 0.00305002 0.0099631 0.00730627 0.00619926 0.00575646 0.0104059 0.00287823 0.00575646 0 0.00265683 0.00797048 0.00642066 0.00287823 0 0.00177122 0.0104059 0.00354244 0.00553506 0.00708487 0.0097417 0.00885609 0.00442804 0.00575646 0.00398524 0.00332103 0.0097417 0.0108487 0.00752768 0.0101845 0.00177122 0.000664207 0.00265683 0.000664207 0.00797048 0.00929889 0.00708487 0.00752768 0.00154982 0.00221402 0.00752768 0.00252341 -0.000264969 -0.00368301 0.0127402 0.0224434 0.00953905 0.018501 0.0378781 0.0411749 0.0675616 0.101851 0.0286572 0.0239371 0.0180554 0.00260442 0.000462682 0.00686347 0.00221402 0.00841328 0.00642066 0.00442804 0.00907749 0.0095203 0.00531365 0.00619926 0.00774908 0.00177122 0.00265683 0.00719438 -0.00431568 0.0076775 0.0370214 0.0439612 0.0249103 0.0678254 0.131139 0.127213 0.142227 0.130179 0.0330852 0.0422874 0.0849351 0.0750775 0.0515148 0.0383374 0.0283119 0.013264 0.00287977 0.000885609 0.00708487 0.0097417 0.00553506 0.00509225 0.00841328 0.000221402 -0.000788059 0.00734343 -0.000730827 0.0526006 0.116243 0.038547 0.0235484 0.100364 0.103305 0.112163 0.21865 0.122484 0.0468583 0.0967585 0.0943287 0.0657061 0.080366 0.0945669 0.0554752 0.0298516 0.0209466 0.0115161 0.0029893 0.00797048 0.0095203 0.00863469 0.00686347 0.00419705 -0.000457694 0.0139301 -0.000669953 -0.00420226 -0.00870434 -0.0421421 -0.123312 -0.0705477 -0.0298302 0.134784 0.265625 0.134268 0.256358 0.509707 0.50231 0.345823 0.273894 0.125509 -0.0845987 -0.0378023 0.0208911 0.00118181 0.0115851 0.0104059 0.00642066 0.0108104 0.0077389 0.00594374 -0.00717369 -0.0202368 -0.0542372 0.00509177 0.0429812 0.119056 -0.0668596 -0.256284 -0.275985 -0.196271 -0.24482 -0.25744 -0.0710959 0.227129 0.338083 0.406594 0.340759 0.114809 -0.0388548 -0.0310861 -0.0213988 -0.00803893 -0.00346901 0.00619926 0.00420664 0.00442804 0.00148082 -0.0134529 -0.0620168 -0.0510866 0.0386634 0.192928 0.213313 0.125692 -0.0785914 0.0221036 -0.136084 -0.0762025 -0.241541 -0.322377 -0.106356 -0.2219 -0.132195 -0.283119 -0.133356 0.0845207 0.0312737 -0.0474185 -0.0513971 0.0330882 0.00268734 0.0169443 0.000664207 0.0083131 -0.0217547 -0.0435066 -0.0553406 0.128208 0.327091 0.204725 0.246134 -0.0432273 -0.121411 -0.32551 -0.209688 -0.08339 -0.162507 -0.326026 -0.413887 -0.534227 -0.630064 -0.411806 -0.432168 -0.132386 0.108695 0.0139361 -0.0913009 0.0157035 0.0323266 0.0198982 0.0108487 0.00579463 0.00623894 0.00936129 0.0368357 0.190956 0.204162 0.203439 0.235223 0.0953023 0.121559 -0.0777818 -0.229426 -0.451661 -0.527047 -0.291961 -0.312005 -0.561436 -0.317563 0.0224756 -0.0100181 -0.246469 -0.186616 -0.0107143 0.0405532 0.0783667 0.010028 -0.00214842 0.00389826 0.0109395 0.014904 0.116107 -0.0204349 0.0654115 0.0738989 0.14208 0.245295 0.0305986 -0.0256802 -0.241202 -0.327549 -0.448504 -0.246159 -0.0846815 -0.636657 -0.468417 -0.0898321 0.0698051 -0.0498192 -0.00693248 -0.253184 -0.103171 0.151182 0.0280341 -0.001836 0.0062726 0.0015107 0.0110462 0.0134922 0.145965 -0.116868 0.00216347 0.0471445 -0.033778 0.0549352 0.0286165 -0.566318 -0.241209 -0.0776714 -0.0904034 0.00696292 -0.110443 -0.164961 -0.376315 -0.227912 -0.332293 -0.141328 0.103449 -0.0409403 -0.0116533 0.0380569 -0.0053093 -0.0296215 -0.0079322 0.00685873 0.0156881 0.00332866 0.0969923 -0.10052 0.0339359 0.0212881 -0.0917613 0.0236566 -0.239429 -0.531921 -0.498502 -0.196166 -0.0924164 -0.0225131 0.0238397 0.124262 -0.43689 -0.557691 -0.00571465 0.202603 0.158672 0.0182264 -0.130898 -0.0843133 -0.137044 -0.13846 -0.0841567 0.00929889 0.0150184 0.0102652 0.0292306 -0.124571 -0.0996401 -0.106752 -0.0790856 -0.222973 -0.362111 -0.332166 -0.0456663 -0.0894069 -0.0070761 -0.0435506 0.087982 -0.170378 -0.505871 -0.49854 -0.163999 0.0594199 0.0964935 0.061108 -0.0180218 0.0839508 -0.018083 0.0071973 0.000221402 0.00265683 0.00217098 0.00505914 0.0237431 -0.11564 -0.200083 -0.274098 -0.286618 -0.664611 -0.326364 0.146355 0.249192 0.296793 0.29031 -0.079492 -0.148314 -0.320034 -0.247816 -0.223759 0.0530266 0.0902242 0.0470644 0.0074233 0.207984 0.25204 0.0496314 0.00417477 0.0108487 0.00531365 0.000885609 -0.0132365 0.0378375 -0.143489 -0.228118 -0.308345 -0.437064 -0.667328 -0.41082 -0.00352351 -0.223265 -0.120971 0.195594 0.0492097 -0.126536 -0.137231 -0.226471 -0.441195 0.00517665 -0.13122 -0.0754949 0.0168319 0.19684 0.207731 0.051309 -0.0012799 0.00553506 0.000221402 0.00243542 0.00495402 0.0443978 -0.098649 -0.211878 -0.299405 -0.417622 -0.181457 0.183025 0.0759354 -0.0343839 0.104093 0.080926 0.0220274 0.0355455 -0.179834 -0.283757 -0.390987 -0.24459 -0.28952 -0.23211 -0.0195459 0.0410045 -0.0357659 -0.0489762 0.0025548 0.00103924 0.00797048 0.00772525 -0.0062766 0.0457472 -0.0680135 -0.165839 -0.160577 -0.333296 0.0669684 0.205548 0.0237612 0.176236 0.055595 0.229131 0.281319 0.134443 -0.105559 -0.424511 -0.439733 -0.214226 -0.0357981 -0.225614 -0.0276413 0.06641 0.0437382 -0.0277323 0.0188439 0.00150377 0.0099631 0.00287823 -0.00602666 0.0207018 -0.0191089 0.0573539 0.0717169 0.0184878 0.251904 0.217753 -0.0540856 0.0542484 0.112826 0.113972 0.154127 -0.147873 -0.477785 -0.228079 -0.250894 -0.0344637 0.123955 -0.0519432 0.189734 0.172339 0.127551 0.0225268 0.00625434 0.00591723 0.000221402 0.0111781 0.00687765 -0.00290595 -0.00299711 0.111168 0.265486 0.335988 0.269899 0.329912 0.235356 0.0650788 0.20687 0.198326 0.0652925 -0.0144235 -0.457449 -0.21275 0.0488037 0.137279 0.0401467 0.0390735 0.262925 0.121229 0.087556 0.0204136 -0.0131131 -0.0108332 0.00752768 0.015576 0.017504 -3.20991e-05 -0.0759644 0.0211078 0.196319 0.295764 0.299018 0.380977 0.349521 0.227223 0.37127 0.260739 0.00815301 -0.120957 -0.188869 0.05601 0.102242 0.0585323 -0.278343 -0.0902894 0.148471 0.00476254 -0.0160391 -0.0160094 -0.00690898 0.00117629 0.0099631 0.00319276 0.0343426 0.00332857 -0.0711225 -0.0444726 0.194259 0.448486 0.439929 0.468526 0.21696 0.147724 0.223791 0.234904 0.0980278 0.199986 -0.134006 0.327579 0.00504276 0.185409 -0.12726 -0.154466 -0.133965 -0.116071 0.0146548 -0.0672927 0.0114381 0.000221402 0.00287823 0.00376384 0.0391948 0.013468 -0.0880649 -0.0790058 0.108805 0.205668 0.134932 0.228912 0.19628 0.228476 0.183599 0.367599 0.378361 0.183145 -0.0470373 0.0470224 0.116052 0.307429 0.147772 -0.0645271 -0.198588 -0.0487944 -0.0388779 -0.0321183 0.00811283 0.000885609 0.00420664 0.00797048 0.0136587 -0.00932687 -0.219323 -0.134425 -0.0526713 0.0818991 0.138598 0.148734 -0.0391096 0.052648 0.053431 0.364372 0.407551 0.246589 0.23427 0.153452 0.134532 0.35849 0.0827617 0.0440116 -0.0108343 0.000881541 -0.000415378 -0.0356402 0.000768735 0.00863469 0.00132841 0.0103676 0.00960191 -0.06126 -0.151047 -0.124104 -0.0763172 0.0251593 0.015911 -0.00344652 -0.0352956 0.198423 0.356885 0.2673 0.252779 0.256633 0.158874 -0.0609452 -0.0393212 0.0919393 0.144075 0.0250734 -0.0565856 -0.0978287 0.00541115 0.00928237 0.00951634 0.00110701 0.000221402 0.000221402 0.0097417 -0.0139693 -0.071589 -0.141984 -0.0559276 -0.0340781 -0.184497 -0.247395 -0.215302 0.0492208 0.205847 0.347919 0.110587 -0.0378714 -0.0799716 -0.10148 -0.157667 -0.312306 -0.227211 -0.0640561 -0.0496276 -0.0177373 -0.00160486 0.00174113 0.00243542 0.00730627 0.00929889 0.00132841 0.00885609 0.00999705 0.0144357 0.0333317 0.0807425 -0.054408 -0.240108 -0.223848 -0.208473 -0.100548 -0.136141 0.0694627 -0.0336762 -0.0723353 -0.196637 -0.234749 -0.210786 -0.290382 -0.23008 -0.155024 -0.0319063 -0.00935602 0.00198385 0.00956111 0.00376384 0.0097417 0.000664207 0.00664207 0.00642066 0.0101845 0.00796504 0.00595356 0.0527346 0.0052501 -0.0491485 -0.137616 -0.0221338 -0.173346 -0.194177 -0.175862 -0.176393 -0.147313 -0.131572 -0.144904 -0.103768 -0.120512 -0.101967 -0.0666176 -0.00923638 0.00127114 0.00133043 0.00177122 0.000664207 0.00642066 0.00154982 0.00487085 0.00553506 0.00221402 0.000442804 0.000885609 0.00177479 0.00891606 0.0167076 0.0164116 0.00894222 0.00175588 0.0190267 -0.0258069 -0.00450559 -0.00943156 -0.0195622 -0.00431916 -0.0124343 -0.00791699 -0.000631667 0.0105602 0.00929889 0.00420664 0 0.00464945 0 0.00177122 0.00686347 0.00132841 0.00819188 0.00841328 0.00619926 0.00265683 0.000221402 0.00730627 0.00398524 0.00199262 0.00509225 0.0099631 0.00309963 0.00243542 0.00708487 0.00487085 0.00154982 0.00154982 0.00642066 0.00243542 0.0097417 0.00664207 0.0097417 0.00154982 0.00619926 0.00819188 0.00575646 0.00619926 0.00221402 0.00619926 0.00797048 0.00907749 0.00752768 0.00494591 0.00342737 0.000869508 -0.00774563 -0.00971755 0.00878362 -0.00390708 0.00388936 0.00722321 0.00596152 0.00958494 0.00880913 0.0107999 0.00980851 0.0097076 0.0101803 0.00265683 0.00110701 0.0095203 0.00929889 0 0 0.00442804 0.00863469 0.00619926 0 0.0108487 0.00132841 0.00735645 0.00687261 0.0110819 -0.00609855 -0.0253814 -0.0545812 -0.123856 -0.0835635 -0.0506182 0.0107181 0.0197316 0.0629839 0.109589 0.110878 0.102697 0.0518815 0.0188847 0.00405957 0.000491763 0.00287815 0.00398524 0.0108487 0.00110701 0.00442804 0.000221402 0.00597786 0.00243542 0.00585302 0.00777719 0.0126331 0.0211713 -0.00529807 -0.0169326 -0.0533333 -0.218538 -0.312583 -0.24768 -0.0661977 -0.0428179 0.0534494 0.117036 0.130024 0.122774 0.0412788 -0.0643769 -0.184219 -0.186479 -0.178092 -0.0356807 0.00998198 0.00575646 0.00752768 0.00929889 0.00708487 0.00166367 0.00597343 0.00739887 0.0322172 -0.024604 -0.0568198 -0.107967 -0.219092 -0.235694 -0.297365 -0.0538628 0.109972 0.203018 0.413023 0.399524 0.145445 -0.0114125 -0.125757 -0.160468 -0.208823 -0.216706 -0.149111 -0.0227382 0.0111584 0.00664207 0.00664207 0.0090589 0.00133855 0.00484923 -0.0389653 -0.0536469 -0.089882 -0.148259 -0.129533 -0.329483 -0.32201 -0.0701918 0.0230468 0.00541362 0.163526 0.314336 0.41573 0.400302 0.38036 0.231327 -0.0332857 -0.0620462 0.0708887 -0.0978963 -0.0506137 -0.0301497 0.0125585 0.00243542 0.00442804 0.00841328 0.00536256 -0.0194112 -0.0893637 -0.106947 -0.127497 -0.116927 -0.171675 -0.242398 -0.19575 -0.12916 -0.0468056 -0.117857 -0.0132262 0.241498 0.0804114 -0.221037 -0.0718492 -0.00892961 0.0982842 0.0843663 0.194762 0.0472185 -0.0947234 -0.125913 0.00590098 0.011408 0.00221402 -0.00113722 -0.0241648 -0.0635908 -0.156598 -0.161203 -0.203199 -0.354239 -0.255686 -0.111671 0.0585529 -0.124743 -0.113278 -0.266486 -0.249643 -0.225734 -0.270866 -0.296993 0.0286153 0.409122 0.806596 0.724343 0.211784 0.146107 0.137917 -0.0450998 -0.0655542 0.00831726 0.00287823 -0.00419499 -0.0167285 -0.084527 -0.188114 -0.17673 -0.252432 -0.247657 -0.0883794 -0.0551098 0.0199241 -0.0175441 -0.0132118 -0.468189 -0.521907 -0.350465 -0.424996 -0.388635 -0.155323 0.336453 0.526474 0.59231 0.524753 0.424849 0.230055 -0.195576 -0.273514 -0.00343165 0.000608295 -0.00478934 -0.00702039 -0.103617 -0.2024 -0.211095 -0.117765 0.153445 0.0898709 0.156782 -0.191907 -0.0550987 -0.196881 -0.194436 -0.27847 -0.482198 -0.802008 -0.788531 -0.707402 -0.112348 -0.0528866 0.215922 0.691491 0.71965 0.281555 -0.00111299 -0.0467175 0.0103984 0.000209291 0.00553332 -0.0246765 -0.0316132 -0.195335 -0.200693 0.0679803 0.206285 0.0500503 0.00300563 0.0772663 0.100073 0.311934 -0.175639 -0.544371 -0.775473 -1.2893 -1.19506 -0.937581 -0.186126 0.255084 0.446853 0.99859 0.989127 0.400851 0.0861127 -0.016969 0.000372046 0.00701104 0.00740622 -0.0271055 -0.0177855 -0.0293989 0.0576605 0.317192 0.145125 0.0291893 0.0462606 0.0029112 -0.0727332 0.379455 -0.380947 -0.773822 -1.06441 -1.06963 -1.00368 -0.661158 -0.0821242 0.140155 0.329337 1.13031 1.03183 0.519468 0.0252029 0.00699705 0.00219781 0.0108487 0.0027912 -0.018506 0.00749746 0.0781362 0.197502 0.382649 0.224426 0.193764 0.156917 -0.0600152 -0.0315132 0.238524 -0.216701 -0.524483 -0.728509 -0.848552 -0.670201 -0.552722 -0.18727 -0.194863 0.226839 1.03311 0.893689 0.581373 0.000177017 0.000869444 0.00819188 0.00730627 0.00953474 -0.00613062 0.0590741 0.102241 0.331339 0.322857 0.0590582 0.310777 0.153042 0.170677 0.230202 0.327202 0.145386 -0.194438 -0.501778 -0.62474 -0.353325 -0.345614 -0.255767 -0.0750529 0.47931 0.773344 0.855662 0.443334 -0.113054 0.00169819 0.00619926 0.00531365 0.00376384 -0.0232878 0.0183716 0.0618765 0.399603 0.370128 0.131565 0.246696 0.244909 0.177779 0.314012 0.438056 0.194117 0.188267 -0.474324 -0.61332 -0.238727 -0.504919 -0.501321 -0.103114 0.303882 0.669847 0.699078 0.274961 -0.073093 -0.0103369 0.00132841 0.00287823 0.00376384 0.00652327 0.0327314 0.0202865 0.462163 0.392489 0.463743 0.365731 0.0326079 -0.28212 0.161228 0.291249 0.135808 -0.160737 -0.827009 -0.803509 -0.438211 -0.308462 -0.269471 0.268941 0.201238 0.531905 0.658891 0.286385 -0.00790401 -0.00277802 0.00872413 0.0101845 0.00206892 0.0111724 -0.00539673 -0.0200611 0.441446 0.472865 0.37552 0.221743 -0.25504 -0.502052 -0.340255 -0.525628 -0.6425 -0.424774 -0.586071 -0.626157 -0.371997 -0.235826 0.183575 0.262179 0.224368 0.432113 0.329054 0.28231 -0.0397688 0.0090961 0.00722046 0.00287823 0.000885609 0.00223747 -0.0160493 -0.0849263 0.269865 0.497596 0.317576 0.0616523 -0.275364 -0.266457 -0.0449657 -0.539488 -0.63084 -0.603819 -0.731907 -0.815978 -0.520679 0.109249 0.369897 0.142626 0.10506 0.204891 0.307539 0.0842111 -0.0417551 0.00964234 -0.00102538 0.00509225 0.0101567 0.000103646 -0.0237966 -0.0674839 0.22847 0.652405 0.425222 0.605463 0.145653 -0.236179 -0.254468 -0.242059 -0.450077 -0.634025 -0.920376 -1.10738 -0.249424 0.301271 0.256152 0.00471894 -0.0645122 0.257686 0.27421 0.0176422 0.0050449 0.0178882 0.00205814 0.0101845 0.00837857 -0.00190789 -0.0328865 -0.052717 0.245751 0.532611 0.574577 0.792059 0.597106 0.0719744 -0.123317 -0.0928184 -0.0846522 -0.436507 -0.395856 -0.467294 -0.171075 0.185865 0.253328 -0.0487407 0.0575313 0.36402 0.0995623 0.0130743 0.0274957 0.0130538 0.00731926 0.00464945 0.00954374 0.0214416 -0.0120778 0.0170113 0.324035 0.636723 0.470461 0.564534 0.118593 0.00809546 -0.0984991 0.0730165 0.168163 -0.0933006 0.0304991 0.0496515 0.214567 0.42049 0.420135 0.103024 0.0847792 0.104145 -0.0169657 0.0471611 0.00110928 0.000591943 0.00929889 0.0106273 0.00398524 0.0198978 -0.00180224 0.0130124 0.182344 0.63012 0.404131 0.325955 0.269684 0.227058 0.018381 0.316251 0.270321 -0.230806 -0.10324 0.252879 0.320221 0.128578 0.00152035 -0.105052 -0.104602 -0.0531161 0.028426 0.0477029 -0.00207802 0.00436541 0.00752768 0.00509225 0.00774908 0.0115632 0.0283063 0.0250445 0.00678006 0.16062 0.367865 0.24964 0.396679 0.615035 0.596489 0.181347 -0.317618 -0.569197 -0.366276 0.0308992 -0.143472 -0.144249 -0.0762733 0.00987215 0.0589374 -0.00437129 0.0103921 0.0267879 0.0126654 0.00367817 0.00752768 0.0108487 0.0088375 0.0045076 0.00534995 0.0232469 -0.0191797 -0.0291845 0.0375415 0.176446 0.250213 0.332724 0.230474 -0.179139 -0.455365 -0.614001 -0.308201 -0.0402695 -0.169477 -0.160542 0.00411794 0.109426 0.104299 0.00809378 0.00715303 0.0101317 0.0206206 0.00619881 0.00841328 0.00730627 0.0099631 0.00487085 0.00389801 -0.0188085 -0.0641123 -0.186271 -0.104374 0.0885558 0.360268 -0.107387 -0.253202 -0.256213 -0.194917 -0.402405 -0.0702567 0.0106456 -0.33879 -0.299249 -0.0555913 0.0815916 0.099919 0.0216676 0.0222704 0.00949701 0.00923753 0.00243542 0.0099631 0.00841328 0.00863469 0.00730627 0.00455824 -0.0319407 -0.101328 -0.158731 -0.118417 -0.0227494 -0.0343727 -0.415576 -0.188434 -0.0361563 -0.14217 -0.197748 -0.209864 -0.256402 -0.397484 -0.163185 -0.0354138 0.0450856 0.076546 0.041483 0.0124971 0.00655081 0.0102274 0.00907749 0.00553506 0.00907749 0.000664207 0.00509225 0.00642066 0.00967504 -0.0267872 -0.0189232 0.125689 0.12609 -0.0157674 0.0276066 0.103073 0.00120789 -0.132088 -0.27971 -0.282663 -0.107325 -0.15749 -0.0882558 -0.0771912 -0.0109781 0.0214248 -0.00717583 0.0155143 0.00678622 0.00287823 0.00420664 0.00420664 0.00243542 0.00265683 0.0101845 0.000885609 0.00376384 0.00420664 0.00727288 0.00148043 0.0114612 0.00822545 -0.0127069 -0.010437 0.00463715 0.0153881 -0.0117488 -0.00912125 -0.00269264 0.00626871 0.00200189 -0.0459171 -0.00442347 0.00113485 0.00642066 0.00177122 0.00819188 0 0.00154982 0.00398524 0.00332103 0.00619926 0.00819188 0.00619926 0.00885609 0.00774908 0.00708487 0.00177122 0.00110701 0.00376384 0.00487085 0.00774908 0.00154982 0.00420664 0.00686347 0.00154982 0.00509225 0.0108487 0.00797048 0.00642066 0.00863469 0.00398524 0.00597786 0.00154982 0.00509225 0.00132841 0.00332103 0.00265683 0.00177122 0.00531365 0.00664207 0.00575646 0.000885609 0.00673427 0.0170201 0.0207021 0.0203412 0.0230352 0.00298012 0.00941177 0.00796249 -0.025158 -0.0476515 -0.0770241 -0.0050676 -0.0105488 -0.0123611 0.00456163 0.00638436 0.00243542 0.000664207 0.00398524 0.00686347 0.00730627 0.00597786 0.00132841 0.00907749 0.0097417 0.00420664 0.000442804 0.00442804 0.00322009 0.0172875 0.00245338 -0.0173608 -0.0292655 -0.0256611 -0.0735125 -0.0949496 -0.109879 -0.214411 -0.17417 -0.220273 -0.308018 -0.216762 -0.0892406 -0.00334161 -0.0453158 -0.0240203 -0.00292771 0.00774663 0.00819188 0.00487085 0.00354244 0.00442804 0.000221402 0.00531365 0.00243542 0.00958505 0.0119485 0.00597443 -0.0746413 -0.176182 -0.148772 -0.202218 -0.285045 -0.434682 -0.533785 -0.708614 -0.830069 -0.448426 -0.574295 -0.485961 -0.22072 -0.0980957 -0.136479 -0.0443412 -0.0345773 -0.0369599 -0.00881649 -7.62247e-05 0.000885609 0.00819188 0.00885609 0.00487085 0.00244461 0.00291666 0.0135856 0.0460729 -0.015093 -0.336402 -0.572479 -0.420957 -0.091203 0.506476 0.461006 0.0664948 -0.246222 -0.420667 -0.296792 0.0486785 -0.137159 -0.031041 -0.232976 -0.0766849 -0.0142574 0.00780373 0.040299 0.0185293 0.00553506 0.00907749 0.0083443 0.00632717 0.00928285 -0.0712865 -0.114897 -0.163718 -0.107876 -0.432143 -0.470568 -0.287704 0.255021 1.21944 1.15042 0.33184 0.128281 0.238978 0.359364 0.33982 0.173561 -0.380413 -0.443729 -0.0564361 0.163558 0.243959 0.0411409 0.0442988 0.0101845 0.00398524 0.00154982 0.00544165 -0.00696474 -0.0725802 -0.155463 -0.385061 -0.384137 -0.45245 -0.528518 0.157919 0.468722 0.756726 0.126021 -0.625246 -0.306458 0.0288194 0.251967 -0.277377 0.238657 -0.182133 -0.253047 -0.0863666 0.0891615 0.286891 0.111614 0.0657322 0.0427362 0.00177122 0.00286587 0.00551959 0.00712744 -0.0992899 0.0616382 -0.0342234 -0.152895 -0.0325467 0.150275 0.181978 0.389116 -0.521466 -0.727382 -0.789116 -0.519365 -0.444201 0.176707 0.431053 0.38528 0.58525 1.00046 0.555185 0.0908419 0.157596 0.100911 -0.0417467 0.0728819 0.00420664 0.00972384 0.0184386 -0.029715 0.09804 0.314561 0.234767 -0.0483006 -0.280991 0.0544702 0.243336 -0.0598028 -0.919598 -0.505443 -0.14606 -0.0905584 0.0254239 -0.163636 0.487696 0.515462 0.530866 0.795519 1.03762 0.248098 0.345323 0.212617 -0.133305 0.00515427 0.00373539 0.0105871 0.0188797 0.182663 0.221423 0.492924 0.29467 0.143072 0.0456614 0.375695 -0.12956 0.149059 -0.417034 -0.449386 -0.338837 0.0299151 -0.428188 -0.365493 0.295702 0.920891 0.775451 0.823586 0.973839 0.727613 0.470867 0.179375 0.0553502 0.0228615 0.00430033 -0.0069179 0.0208964 0.267652 0.179749 0.335987 0.408445 0.432949 0.110963 -0.161747 0.137868 0.0052123 -0.288335 -0.147483 0.0108114 0.158279 -0.489372 -0.284459 0.326983 0.257826 0.261236 0.488339 0.848624 0.791666 0.181603 0.0302791 0.186829 0.028578 0.00735791 -0.0128781 0.0405242 0.168269 0.00440913 0.217152 0.769677 0.0887895 -0.37927 -0.523067 -0.0823643 -0.10523 -0.336777 0.0750736 -0.046927 -0.114618 -0.497734 -0.395908 0.136026 0.170647 0.232451 0.120006 0.511814 0.694617 0.606741 0.21942 0.13891 0.0836173 0.00265683 -0.00475246 0.0531622 0.221718 0.179712 0.404225 0.681748 0.0709015 -0.134474 -0.474051 -0.471417 -0.393889 -0.400221 0.174751 -0.0228732 -0.315416 -1.10147 -0.949368 -0.275261 0.422461 0.641191 0.602995 0.430929 0.714853 0.391543 -0.0285258 -0.000594009 0.00863469 0.00885609 0.0102817 0.063104 -0.0118113 -0.085128 0.163496 0.394812 -0.166796 -0.0345372 -0.458362 -0.91119 -1.10385 -0.513684 -0.280242 -0.350603 -0.975604 -1.217 -0.957686 -0.594977 -0.290248 -0.00108262 -0.0195411 0.134244 0.452248 0.587238 -0.018682 -0.00156775 0.0108487 0.00110701 0.000221402 0.0355777 -0.0487755 -0.18206 0.344328 0.255845 -0.749125 -0.576986 -0.8303 -0.998365 -0.79839 -0.180304 -0.246869 -0.36246 -0.411093 -0.792324 -1.04547 -1.05831 -1.17518 -0.764105 -0.447354 -0.0953208 0.665535 0.554679 0.0237674 0.0270774 0.000664207 0.00863469 0.0101845 -0.00017983 -0.11764 -0.265049 0.46438 0.0470306 -0.63252 -0.0156046 -0.495247 -0.900914 -0.484713 -0.814416 -1.06516 -0.825776 -0.907589 -0.541427 -0.725906 -1.01793 -1.14894 -1.12642 -0.77361 -0.410664 0.593574 0.394274 -0.036882 0.0324619 0.0041734 0.0108487 0.000180105 0.0142106 -0.10766 -0.161253 0.453232 -0.156802 0.0546536 0.247192 0.3179 -0.627427 -0.776303 -1.16356 -0.961186 -0.823636 -0.921111 -0.283613 -0.0980115 -0.713174 -0.929521 -0.863486 -0.408244 -0.432823 -0.111001 0.376495 0.0819135 0.0323108 0.0213548 0.00797048 0.00487085 0.005788 -0.0726467 -0.108649 0.0589389 -0.10633 0.435688 0.640614 0.665477 -0.449292 -0.688659 -0.957005 -0.815428 -0.959912 -0.706454 -0.701722 -0.587648 -0.434883 -0.776872 -0.485267 -0.415141 -0.279942 -0.30758 -0.0355244 -0.0506196 0.0242186 0.0230794 0.0108487 0.00450156 -0.00115831 -0.0273762 -0.245946 -0.482554 -0.246628 -0.00195979 0.512779 0.634982 0.474065 -0.644271 -0.960318 -1.02211 -1.23526 -0.754169 -1.1981 -0.699735 -0.817549 -0.370425 -0.431637 -0.182396 -0.045317 -0.0237978 -0.140325 -0.0897831 -0.0224856 -0.0036826 0.00110701 -0.00389021 -0.00784959 -0.0657044 -0.35022 -0.405659 -0.672463 -0.236243 -0.0144876 0.304624 0.332094 -0.376055 -0.211019 -0.523132 -0.943486 -0.998383 -0.884943 -0.970114 -0.373087 0.136326 -0.276822 -0.0855055 -0.248544 -0.244751 -0.150101 -0.0364997 -0.013181 0.00423614 0.00509225 0.00138166 0.00583511 -0.0660432 -0.345157 -0.290048 -0.481852 -0.647754 0.0423565 0.26775 0.0710314 0.0349941 0.0544886 -0.434396 -0.841974 -0.634834 -1.02143 -0.0948396 -0.198238 -0.102855 -0.254318 -0.187286 -0.41077 -0.0536225 0.146868 -0.0043589 0.00802216 0.00841328 0.0104059 0.00553506 -0.000207556 -0.143124 -0.340874 -0.310778 -0.41995 -0.761027 -0.195227 0.160285 0.0566445 0.0986545 -0.0265029 -0.0911762 -0.347641 -0.690948 -0.296204 -0.286274 -0.526774 0.115802 -0.170513 -0.24867 -0.200316 0.100082 0.140704 -0.00397014 0.00255374 0.0104059 0.00287823 0.00708487 0.00752541 -0.135188 -0.38026 -0.300428 -0.0691377 -0.587718 -0.490452 -0.421086 -0.181659 0.400234 0.627593 0.701265 0.303137 0.0235408 -0.0910154 -0.155786 -0.230108 0.0103867 -0.428317 -0.110843 -0.0202821 0.135318 0.0386037 -0.0105028 0.00231065 0.00354244 0.00110701 0.00325205 0.00250307 -0.0445931 -0.169634 -0.224503 0.160146 0.248854 0.230454 -0.403912 -0.621614 -0.20126 0.0637207 0.718833 0.662294 0.854192 0.635736 0.173546 -0.0836707 0.12442 -0.238934 -0.107068 0.0226796 0.0520078 0.015344 -0.00664337 0.00551542 0.00243542 0.0106273 0.000221402 0.00597786 -0.00904813 0.0117333 -0.132819 -0.010466 0.275976 0.154767 -0.00783 -0.29606 -0.278563 -0.0918763 0.209856 0.0500371 0.195943 0.167458 0.1116 -0.0866881 -0.391752 -0.23451 -0.132379 -0.0526355 -0.00717195 0.0107641 0.00573993 0.00819188 0.00553506 0.00309963 0.00309963 0.00797048 0.0018081 0.025497 0.0249956 0.128655 0.181652 0.0132082 -0.261445 -0.320982 -0.0175377 0.271799 0.241193 0.310994 0.162732 0.125886 0.324327 0.107207 0.0741207 0.104777 0.0446555 -0.0176366 0.00532956 0.003748 0.00437536 0.0095203 0.00907749 0.0108487 0.00708487 0.00354244 0.00354244 0.0104286 0.0115289 0.133906 0.154645 0.195413 0.0936122 -0.0192482 0.0538414 0.0900551 0.184789 0.217032 0.149388 0.194859 0.170394 0.120177 0.124063 0.0858378 0.0363913 0.00544404 -0.00096444 0.000974619 0.00398524 0.0101845 0.00376384 0.00907749 0.00863469 0.00221402 0.00929889 0.00509225 0.00642066 0.00179667 0.00495557 -0.00644647 -0.0167573 -0.0140203 -0.00581588 -0.013731 0.0934818 0.0557301 0.0447337 0.0506 0.0265238 0.0326492 0.0337624 0.0112767 0.00620957 0.00199262 0.00442804 0.0099631 0.00686347 0.00730627 0 0.000221402 0.00642066 0.00420664 0.00929889 0.00442804 0.00664207 0.00819188 0.0095203 0.00199262 0.0104059 0.00354244 0.0097417 0.00863469 0.000664207 0.000664207 0.00841328 0.00885609 0.0095203 0.00819188 0.00686347 0.00553506 0.00907749 0.000442804 0.00265683 0.00464945 0.00287823 0.00708487 0.00376384 0.0097417 0.00332103 0.00420664 0.0101845 0.0097417 0.0073715 0.00101429 -0.0021565 -0.0337553 -0.0356917 -0.00690741 -0.016163 -0.0500289 -0.00712523 -0.00728197 -0.00681663 0.00557327 0.00656041 0.00203239 0.00472644 0.00554396 0.00929889 0.000885609 0.000664207 0.00774908 0.00154982 0.00332103 0.00132841 0.00487085 0.0104059 0.00553506 0.00376384 0.00309963 0.00830847 0.00265569 0.0245357 -0.0209683 -0.0631845 -0.0707137 -0.132152 -0.169656 -0.170233 -0.0794434 -0.0648456 0.00940667 0.0393019 -0.0138761 0.00426893 0.0147512 -0.00145542 -0.000284558 0.00606704 0.0048713 0.00487085 0.00664207 0.00154982 0.00686347 0.0099631 0.00354244 0.000664207 0.00961772 0.0128764 0.0507655 0.0385242 -0.0105072 0.0573419 0.0240747 -0.123528 -0.187525 -0.217793 -0.0945348 -0.071186 -0.010151 0.125494 0.0955942 0.108066 0.0803395 0.00188477 0.00540745 0.00713277 0.00840834 0.000163287 0.00390725 0.00199262 0.00487085 0.0106273 0.00398524 0.00855583 0.0215845 0.0235917 -0.0266667 -0.18756 -0.0664569 0.058616 -0.0147753 -0.229711 -0.552017 -0.45697 -0.22765 -0.0434611 0.189172 -0.0212851 -0.0970442 -0.06194 -0.10546 0.169007 0.177909 0.102217 0.0137694 0.00478638 0.00787317 0.00132841 0.00265683 0.00154551 0.00383931 0.0184649 0.101687 0.104288 0.0537742 -0.0155091 0.224056 -0.0161967 0.0173536 -0.125797 -0.803002 -1.32531 -1.02451 -0.483355 0.00294367 -0.105485 0.0765686 -0.113827 0.174092 0.616598 0.373467 0.120488 -0.0260731 -0.0140548 0.00709307 0.00376384 0.00819188 0.00531365 0.00437296 0.0133348 0.14853 0.151043 0.195104 0.363554 0.308054 0.011677 -0.20388 -0.794436 -1.06373 -1.23285 -0.757431 -0.839575 -0.508835 -0.16536 0.0236619 -0.0384131 0.426339 0.709616 0.561839 0.310652 0.11535 -0.00619076 -0.0112161 -0.00522383 0.00708487 0.00146909 -0.000190602 0.00675278 0.111617 -0.00374504 0.099517 0.186386 -0.0924273 -0.365817 -0.457182 -0.958748 -0.740933 -1.2604 -1.23042 -1.37013 -0.985587 -0.756673 -0.0585967 0.021132 0.261995 -0.0849116 -0.0533716 0.253757 0.206716 -0.0422684 -0.0415859 -0.0244485 0.00531365 0.000979141 -0.00910684 0.0234576 -0.0536093 -0.0287019 -0.0237274 -0.0726814 -0.206344 -0.442878 -0.869165 -0.799793 -0.598598 -1.14521 -1.32738 -1.28283 -0.856605 -0.957916 -0.535829 -0.147201 -0.395558 -0.522097 -0.461661 0.0251424 0.0859803 -0.12873 -0.0381006 -0.00359902 0.0048957 0.00799186 -0.0208844 -0.206392 -0.110911 -0.0842681 -0.0591078 -0.00730325 -0.548029 -0.772497 -0.530241 -0.7817 -0.65019 -0.959833 -0.741663 -0.742685 -0.451717 -0.373829 -0.332026 -0.214931 -0.656374 -0.427222 -0.31104 -0.311422 -0.248895 -0.0938394 -0.00772097 0.000713175 0.00680839 0.0250853 -0.089766 -0.297825 -0.193839 -0.200018 0.00818883 -0.0818777 -0.501884 -0.852527 -0.328969 -0.545471 -0.107492 -0.563963 -0.6865 -0.355682 -0.555953 -0.35164 -0.426823 -0.491883 -0.386138 -0.243573 -0.353648 -0.340442 -0.212911 -0.039974 -0.00818286 0.000271051 0.00648939 0.0238818 -0.138638 -0.302996 -0.190763 -0.306031 0.029714 -0.103799 -0.363926 -0.612191 0.0154597 -0.355836 -0.131758 -0.699589 -0.728797 -0.66605 -0.543615 -0.509058 -0.662744 -0.548633 -0.449877 -0.310263 -0.267119 -0.300849 -0.091429 -0.0385913 -0.0185435 -0.00998409 0.0108487 0.0266304 -0.151488 -0.282798 -0.351742 -0.384168 -0.021308 -0.633765 -0.484292 -0.300288 0.153882 0.11739 0.0144455 -0.801992 -0.79065 -0.617957 -0.338881 -0.206137 -0.973574 -0.751976 -0.554646 -0.584859 -0.372314 -0.361216 -0.151566 0.0444994 0.00347715 0.00730627 0.00730627 0.0100427 -0.0134981 -0.0177155 -0.0521262 0.0414894 0.256138 -0.139595 0.0182503 0.380027 0.871392 0.593898 0.470178 -0.137651 -0.660485 -0.179283 -0.269827 0.0220995 -0.757853 -0.356713 -0.321306 -0.347432 -0.0826291 -0.188172 -0.257171 -0.0211156 0.00367796 0.00730627 0.00686347 0.00597786 -0.0256144 -0.0176133 0.0373895 0.118385 0.430464 0.449086 0.381262 0.571859 0.375495 0.837507 0.204215 -0.0817052 -0.176791 -0.339099 -0.306193 -0.0327532 -0.309868 0.161029 0.0210023 -0.0319971 0.0952151 -0.0909465 -0.157393 0.0323736 -0.035077 0.00708487 0.00398524 0.00487085 0.00465385 0.0701394 0.0733717 0.097684 0.482506 0.728253 -0.0620823 -0.061619 0.124364 -0.211999 -0.349448 -0.578298 -0.616925 -0.13533 -0.229161 -0.370863 -0.197118 0.343375 0.491244 0.215543 0.33539 0.00898155 0.232831 0.209076 -0.0451188 0.0123336 0.00487085 0.00864844 -0.0042108 0.0714904 -0.0313489 0.0540498 0.318611 0.242495 0.207885 -0.493694 -0.431905 -0.590144 -1.11161 -1.38917 -0.748837 0.198502 -0.240362 -0.708505 -0.606408 0.407591 0.249866 0.11688 0.242469 -0.0550389 -0.0439136 -0.0507169 -0.062125 -0.0118704 0.000885609 0.00619926 0.00535275 0.0342466 -0.0178155 0.0609763 0.0760513 0.0717999 -0.0151723 -0.74284 -0.670697 -0.949347 -1.11288 -1.00672 -0.186724 -0.0714096 -0.447986 -0.682195 -0.815114 -0.179915 0.270573 0.255778 0.360069 -0.0368698 -0.0151265 -0.0368372 -0.0332888 -0.0121242 0.00774908 -0.00255114 -0.00277251 0.00669245 -0.00628853 0.179072 -0.153474 0.0103239 -0.232835 -0.202625 -0.482097 -0.366153 0.200917 0.0224373 0.362997 0.153506 -0.301179 -0.435028 -0.627222 -0.398202 0.190367 0.0197866 0.00989562 0.0278261 0.178451 0.0529378 -0.00778471 -0.00331491 0.00420664 -0.00275035 -0.00268839 0.0178309 -0.0147564 0.113801 0.235877 0.012171 -0.0846859 -0.240363 -0.526888 -0.460119 -0.524884 -0.276653 -0.06345 0.277864 -0.252768 -0.650763 -0.5329 -0.343775 0.133727 -0.0878735 0.0467022 -0.0101305 0.212769 0.0159522 0.00196069 0.000941833 0.000664207 0.000126068 0.010762 0.0312173 0.0101975 0.0529237 0.154022 -0.0842227 -0.38702 -0.72694 -1.06121 -0.869173 -0.419946 -0.477343 -0.0320186 -0.0182258 -0.130662 -0.702346 -0.359613 -0.178486 -0.0760791 -0.192538 0.104393 0.0410336 -0.0354061 -0.00609939 0.00287562 0.0095203 0.0097417 0.00819188 0.0162378 0.0433254 0.0280618 0.0269137 0.120211 0.00479227 -0.225724 -0.469562 -0.517959 -0.249339 -0.222572 -0.46662 -0.469797 -0.189554 -0.0796238 -0.548137 -0.0783753 -0.492226 -0.285222 -0.176187 -0.0487462 -0.0850532 -0.0531613 0.002431 0.00196924 0.0104059 0.00199262 0.000664207 0.0154795 0.0215164 0.00503862 0.0070911 -0.020278 -0.00884276 -0.142062 -0.335172 -0.299476 -0.157462 -0.325293 -0.533015 -0.456843 -0.214772 -0.206392 -0.493407 -0.325265 -0.395972 -0.158596 -0.123689 -0.0724013 -0.0436765 -0.0636139 -0.0198368 0.00491369 0.00553506 0.0099631 0.00752337 0.00497693 -0.0132521 0.00769174 0.0443493 -0.043933 -0.107276 -0.0957252 -0.0972965 -0.00834478 -0.416355 -0.472962 -0.458709 -0.443816 -0.298253 -0.321373 -0.684424 -0.395581 -0.335659 -0.0941603 0.11907 0.0547431 0.0358454 -0.0181834 -0.0218511 0.00199143 0.00442804 0.00354244 0.00752768 0.0099631 0.00150469 -0.0102444 0.106844 -0.164487 -0.110665 0.09587 0.165608 0.293264 -0.106007 -0.234782 -0.0614322 -0.266874 -0.330414 -0.341385 -0.81534 -0.443657 -0.168348 -0.368349 -0.000783206 0.0580649 0.027724 0.00653977 0.00840883 0.00664207 0.00686347 0.00907749 0.00907749 0.000664207 0.00194661 0.00374889 -0.0103851 -0.0271305 -0.0132472 0.219714 0.315744 0.124399 -0.147776 -0.536254 -0.358291 -0.699807 -0.68122 -0.760505 -0.825105 -0.504309 -0.480633 -0.375959 -0.176467 -0.0189137 0.00028314 0.00502534 0.00831577 0.00376384 0.00265683 0.00619926 0.0108487 0.0101845 0.00420664 0.00906836 -0.00726092 -0.0253593 -0.0584273 -0.100543 -0.102957 -0.116983 -0.172593 -0.19899 -0.34188 -0.500481 -0.502944 -0.429564 -0.315428 -0.262573 -0.271978 -0.213417 -0.112977 -0.0184488 0.00561127 0.0042521 0.00442804 0.0101845 0.0101845 0.00177122 0.00332103 0.00221402 0.00863469 0.00376384 0.00132841 0.00218899 0.00124731 0.000116055 0.00442599 -0.000408093 0.00154409 0.00557394 -0.112271 -0.046004 -0.0372323 -0.054984 -0.0253606 -0.0465979 -0.0775592 -0.00533052 0.00794569 0.0095203 0.00575646 0.00132841 0.00110701 0.000885609 0.00597786 0.00597786 0.000442804 0.00553506 0.00797048 0.00420664 0.00797048 0.00597786 0.00797048 0.0097417 0.00819188 0.0097417 0.000885609 0.00575646 0.00509225 0.00420664 0.00354244 0.00487085 0.00287823 0.00885609 0.000221402 0.0101845 0.00354244 0.00464945 0.00619926 0.00110701 0.00309963 0.00110701 0.00243542 0.00464945 0.00243542 0.00907749 0.0108487 0.00287823 0.00355465 0.00826773 0.00713568 -0.00405582 -0.00300669 0.00350845 0.0220346 -0.00384901 0.00288553 0.00300042 0.0118371 0.010891 0.00835688 0.0118926 0.00330933 0.0086332 0.00819188 0.00354244 0.00819188 0.000664207 0.00863469 0.00354244 0.00177122 0.00110701 0.00509225 0.00487085 0.00597786 0.00797048 0.0033243 0.00693207 0.00543405 0.00361302 -0.00578524 0.0109836 0.00454683 -0.0557363 -0.0810697 -0.0310329 -0.00962387 0.00916313 0.0206744 -0.00749574 0.0333671 0.0486132 0.0158896 0.00727067 0.00321672 0.0101845 0.000221402 0 0.000221402 0.00885609 0.00398524 0.00265683 0.0101845 0.0095231 0.00857676 0.0172255 0.0146479 -0.00581 -0.0109736 0.00242615 -0.0499523 -0.151742 -0.132238 -0.0656405 -0.0298288 -0.0255583 -0.000768126 -0.0187587 0.0414929 0.0729219 0.0628639 0.028727 0.0115558 -0.00167899 0.00951144 0.00892118 0.000664207 0.0101845 0.0099631 0.000885609 0.008815 -0.00608633 0.00685538 -0.00110073 -0.0857087 -0.0928934 -0.0879948 -0.0430457 -0.0762748 -0.205085 -0.131823 -0.0569419 -0.0924649 0.0464595 -0.0218028 0.0138913 0.144835 0.0913128 0.0407645 0.0014494 -0.0209745 -0.0545229 -0.0235305 -0.0154836 0.00309963 0.00243542 0.00620757 0.00423468 0.00377778 0.0164454 0.0407745 0.0356127 -0.0798068 -0.053614 -0.0478633 0.0108851 0.0923653 -0.0541984 -0.170189 -0.215214 -0.0737046 -0.000850473 -0.261152 -0.157916 -0.0521651 0.0288711 0.0561077 0.0286118 -0.0345793 -0.0381578 -0.0379361 -0.0188354 0.00199262 0.00398524 0.00132841 0.00594539 0.0109455 0.0612287 0.0822107 0.0901063 0.0317294 -0.0234409 -0.133274 -0.127036 -0.070701 -0.0605623 -0.152961 -0.235273 -0.281286 -0.318609 -0.338508 -0.25814 -0.181157 -0.108515 -0.175912 0.0136896 0.122487 0.104155 0.0378025 0.00584533 -0.00175854 0.00686347 0.00300277 0.00780869 0.0100967 0.0805532 0.0790122 0.0790072 -0.0261657 -0.175897 -0.239477 -0.173964 -0.249299 -0.106524 -0.322511 -0.362752 -0.302831 -0.485082 -0.480988 -0.463096 -0.350116 -0.196143 -0.386114 -0.187286 -0.00996938 -0.0030784 -0.0328325 -0.0606205 -0.00700428 0.00243542 0.00524624 0.00422231 0.0209663 0.0266465 0.0117046 -0.0489285 -0.106856 -0.262998 -0.349202 -0.382184 -0.245453 -0.048482 -0.265607 -0.312188 -0.281091 -0.145039 -0.268592 -0.382976 -0.135588 -0.0676743 -0.168153 -0.103923 0.0821556 0.00809151 -0.0800871 -0.102445 -0.0161549 0.00381834 0.00685639 0.0120488 -0.0236976 0.000120678 -0.0218813 -0.0790052 -0.0280266 -0.251858 -0.377933 -0.384377 -0.353125 -0.119417 -0.157858 -0.11977 -0.146208 -0.144633 -0.133621 -0.0163329 0.0382321 -0.00505944 0.0205972 -0.0555185 -0.0969017 -0.0887329 -0.0403934 -0.0126146 -0.00540642 0.00650526 0.012014 0.0122966 -0.0411509 -0.01665 -0.0341066 -0.0937499 -0.0603918 -0.188129 -0.363229 -0.353208 -0.161063 0.0874046 0.0449698 -0.121879 -0.168792 -0.136153 -0.112926 0.0032641 0.119909 0.126895 0.0147992 -0.0111775 -0.0988897 -0.043774 -0.0674787 -0.0343496 -0.00675693 0.00909295 0.0138215 -0.000186822 -0.0382226 -0.0408386 -0.083189 -0.0133412 0.0303702 -0.126948 -0.316084 -0.246984 -0.0519726 0.190382 0.0132262 -0.258346 -0.305993 -0.0613705 -0.0717443 0.002157 0.0105653 0.0443993 0.0330756 -0.00404429 -0.0513978 0.0624924 -0.0329255 -0.0321579 -0.00403499 0.00619926 0.00979879 0.000166726 -0.0107127 -0.057455 -0.0719875 0.0255794 -0.18246 -0.172842 -0.184477 -0.0729339 0.271108 0.223751 -0.0978542 -0.481981 -0.517534 -0.195635 0.0187689 0.0995353 -0.130389 -0.0436139 -0.00962211 0.0131301 0.083292 0.157249 0.0199419 -0.00555257 0.00664207 0.00287823 0.00653299 0.00552747 0.0385653 -0.0534425 0.0460339 0.17094 0.0565657 -0.0965023 -0.0372872 0.163363 0.371022 0.158257 -0.188621 -0.454671 -0.461397 -0.508148 -0.0062473 0.0581891 0.023456 0.108725 0.0833258 0.164955 0.156954 0.12553 -0.00839531 0.0025227 0.00177122 0.00841328 0.00398524 0.00555018 0.020515 0.00110191 0.1439 0.185113 0.166156 -0.0380108 0.178522 0.162742 0.281215 -0.0881721 -0.30142 -0.302936 -0.453971 -0.508656 -0.138547 0.0730455 0.335592 0.203075 0.189129 0.204532 0.16351 0.0974802 0.00409863 -0.00138908 0.00819188 0.00664207 0.00708487 0.00864244 0.0431258 0.0326175 0.151505 0.14484 0.231449 -0.0473246 0.167345 0.289851 0.106934 -0.0840059 -0.18295 -0.141906 -0.159553 -0.165306 -0.196622 0.0572363 0.426587 0.227337 0.173272 0.255974 0.149159 0.154041 0.094263 0.00933893 0.011878 0.0104059 0.000698718 0.00032575 0.0377604 0.0365385 0.131378 0.185063 0.252175 0.0929077 0.00813273 0.0199037 -0.00730127 -0.126703 -0.251989 -0.185296 -0.0126267 -0.00984964 -0.183549 0.0394358 0.244435 0.228314 0.176926 0.217489 0.070698 0.0583579 0.045018 0.00998114 -0.00202095 0.00464945 0.00110701 -0.00673659 0.0211382 0.0280624 0.0552783 0.147679 0.217186 0.200449 -0.00268626 -0.229015 -0.198132 -0.236495 -0.336942 -0.0680692 -0.0520103 -0.0207212 -0.0968227 -0.113338 0.00307631 0.188658 0.211186 0.177584 0.0699151 0.0281337 -0.00814549 0.00475613 -0.00335346 0.00376384 0.00309582 -0.00108404 -0.00758074 -0.0187461 0.0659005 0.0671163 0.137025 0.155999 0.170297 -0.0710998 -0.18804 -0.0520375 -0.202268 0.0965598 0.0586941 0.0754984 -0.158642 -0.240115 -0.102377 0.0690523 0.0807856 0.0248056 0.0382653 -0.00260469 -0.000682382 -0.000963134 0.00333742 0.00199262 -0.0011309 0.000619262 -0.0336341 -0.038494 0.0464285 0.0980963 0.0202593 0.18965 0.237258 0.0578751 -0.156599 -0.228019 -0.155624 0.0342502 0.162024 -0.0196184 -0.3708 -0.337504 -0.122985 -0.042104 0.0299335 0.037239 0.00421093 0.0264807 0.0121692 0.00381907 0.00881774 0.00154982 0.00445877 0.0137999 -0.0161468 -0.030179 0.0198611 0.102628 0.0478757 0.0724958 -0.0845794 -0.0853599 -0.234079 -0.188611 -0.114859 0.0428589 0.035358 -0.284401 -0.346962 -0.289463 -0.286078 -0.175175 -0.137956 0.0346181 -0.0449088 -0.0158841 0.00796996 0.00661669 0.00686347 0.0101845 0.00907749 0.0219322 0.00217888 -0.0321736 -0.0517157 0.0736416 0.0329801 -0.0130438 -0.109913 -0.0482497 -0.077137 -0.163354 -0.137909 -0.111055 -0.0944846 -0.226324 -0.361873 -0.213379 -0.33761 -0.300943 -0.17477 -0.0524532 -0.0597437 -0.029189 -0.00234049 0.00972619 0.00243542 0.00686347 0.00420664 0.0123055 -0.00229763 -0.0489131 -0.0598131 0.0254817 0.0492238 -0.00454521 -0.143377 -0.122399 -0.166617 -0.314879 -0.207667 -0.175505 -0.20301 -0.150753 -0.196134 -0.25129 -0.266475 -0.120805 -0.145757 -0.0937476 -0.0511327 -0.0323007 -0.0196504 0.00824061 0.00642066 0.00243542 0.00731458 0.00963934 -0.004503 -0.0322563 -0.0231254 -0.036998 -0.037059 -0.0124921 -0.0529422 0.000917226 -0.0440443 0.0691863 0.0658786 -0.119633 -0.110512 -0.0599017 -0.210527 -0.200771 -0.0286112 0.0210015 -0.0312609 -0.0520446 -0.0446609 0.000998487 0.00362772 0.00641949 0.00531365 0.00110701 0.00420664 0.000885609 0.00197345 -0.00575252 0.0247767 -0.0396667 -0.0300752 -0.0446793 -0.051926 0.0596976 0.135467 0.0880224 0.149541 -0.135204 -0.269658 -0.208657 -0.243589 -0.120039 0.0187712 -0.026558 -0.00342881 -0.00154014 0.00343127 0.000942384 0.000397259 0.00509225 0 0.0104059 0.000442804 0.00553506 0.000639171 0.00667161 0.00847805 0.0104047 0.00915071 0.062909 0.0703971 -0.0322793 -0.126357 -0.212454 -0.0976987 -0.230544 -0.220671 -0.187399 -0.187946 -0.114283 -0.123981 -0.126131 -0.0641408 -0.0168274 -0.00773927 0.00063165 0.00437564 0.00265683 0.00841328 0.00509225 0.00774908 0.00863469 0.00442804 0.00863715 0.00304324 0.000531247 -0.0449364 -0.0712019 -0.0742415 -0.0321149 -0.070899 -0.109705 -0.144326 -0.176819 -0.173091 -0.113246 -0.0875627 -0.0542468 -0.0511948 -0.0476165 -0.0305862 0.00265169 0.00866161 0.00134778 0.00929889 0.00243542 0.00398524 0.00309963 0.00509225 0.00177122 0.00841328 0.00177122 0.0108487 0.00175935 0.0105973 0.00392604 0.0158227 0.00815269 0.00981157 0.0108525 -0.0418067 -0.0113514 -0.010054 -0.0106552 0.000998877 -0.00402274 -0.00414778 0.00155167 0.00220109 0.00752768 0.00797048 0.00575646 0.00509225 0.00686347 0.00752768 0.00332103 0.0095203 0.000442804 0.00642066 0.00354244 0.00221402 0.00376384 0.00597786 0.00265683 0.00619926 0.00575646 0.00597786 0.00287823 0.00885609 0.00885609 0.0106273 0.0104059 0.00686347 0.00376384 0.00752768 0.00531365 0.0099631 0.00531365 0.00929889 0.00177122 0.00199262 0.00664207 0.00752768 0.00752768 0.00265683 0.00398524 0.0108487 0.00154982 0.00535638 0.00965625 0.00711257 0.00592055 -0.00333281 0.00060799 0.0184207 -0.000642348 0.00182448 -0.00380766 -0.0100967 0.00104858 4.2475e-05 0.00295971 0.00481706 0.0103983 0.00221402 0.00154982 0.00531365 0.00177122 0.00686347 0.00398524 0.00354244 0.00929889 0.0108487 0.000442804 0.00575646 0.00287823 0.0054104 0.00753418 0.00305345 -0.0113013 -0.0302137 -0.0383777 -0.114902 -0.0943852 -0.118382 -0.108358 -0.102612 -0.0780611 -0.112146 -0.0624746 -0.0123362 0.0082544 0.0109045 0.00451219 0.00343732 0.0095195 0.00797048 0.0097417 0.000664207 0.00420664 0.00287823 0.00464945 0.00309963 0.00306654 0.0156363 0.0573719 0.00808704 -0.0951881 -0.0652967 -0.173725 -0.18026 -0.240284 -0.274884 -0.267942 -0.265241 -0.109548 -0.0805753 -0.138652 -0.0586201 0.00527192 0.000443408 0.0187849 -0.00456527 -0.0105207 0.000567696 0.00759415 0.0101845 0.000664207 0.00774908 0.0108487 0.0054422 -0.000455242 0.0388417 0.0582856 -0.0506599 -0.201722 -0.304242 -0.35782 -0.237156 -0.222166 -0.168439 -0.298402 -0.276124 -0.285151 -0.268667 -0.0798473 -0.103487 -0.0564094 -0.0269639 0.0441347 -0.00735975 -0.0089038 0.00363281 0.00825585 0.00819188 0.00619926 0.00529817 0.00797175 0.0062544 0.0364699 0.0663136 0.0262302 -0.153422 -0.328956 -0.492817 -0.366614 -0.0876831 0.0288931 0.173229 0.00507191 -0.0476171 -0.0626049 -0.115685 0.0449299 0.163024 0.033098 0.023775 0.0684182 0.0580107 0.00780571 0.00485481 0.00502742 0.0099631 0.0099631 0.0097417 0.0103059 0.0245403 0.106207 0.075861 -0.0474018 -0.149848 -0.295322 -0.304564 -0.105906 -0.0635544 0.0451466 -0.0369296 -0.310155 -0.331669 -0.252172 -0.0731489 0.0366122 0.270314 0.120382 -0.0502388 0.0299783 0.145341 0.118012 0.0335743 0.00499022 0.00395549 0.00398524 0.00586179 0.0169695 0.0501891 0.0652042 -0.0146596 -0.0390401 -0.153966 -0.142749 -0.00679904 0.0345773 0.030233 -0.0137266 -0.278437 -0.448337 -0.284945 -0.341569 -0.244229 0.0466224 0.134692 0.231945 -0.0645331 -0.147264 0.00568142 0.117107 -0.0117985 -0.0474408 0.00619284 0.000664207 0.0106404 -0.0270832 -0.00401397 0.00935601 -0.0515718 -0.0766669 -0.230762 -0.209075 0.0413424 0.0405332 0.307243 0.221282 0.00736719 -0.0936807 -0.161752 -0.184821 -0.162918 -0.0185012 0.153125 0.206731 -0.00952383 -0.113926 -0.076798 0.098748 0.0371023 -0.0789504 -0.0156314 0.00198674 0.00355683 -0.0216998 -0.0325029 0.0524492 0.0267897 -0.0934749 -0.1938 -0.241764 0.108486 0.0952432 0.31606 0.145671 -0.115717 -0.127904 -0.276783 -0.101934 -0.0336648 -0.000432856 0.195859 0.197265 0.14678 0.148255 0.0899749 0.0279749 0.113172 0.00691995 0.00499241 0.00720728 0.008382 0.00522494 -0.00828794 0.133322 0.043008 0.00808236 -0.14148 -0.00748854 -0.0970661 0.106487 0.155286 0.0706028 0.031205 0.0561533 -0.0302842 -0.0779359 0.0910907 0.0733185 0.0833994 0.160388 0.122324 0.201983 0.110617 -0.0453921 -0.0443043 0.0113851 0.00976359 5.92641e-05 0.00958317 -0.00451509 -0.0282351 0.0556714 0.11867 0.102031 -0.0974891 0.0473531 -0.0134078 0.0935256 0.0745618 -0.0234123 -0.048856 -0.235517 -0.276885 -0.245807 -0.014893 0.0505867 -0.225137 0.0405623 -0.0297165 0.112088 0.112357 0.0377079 -0.104464 -0.0477925 0.0131596 0.00531365 0.00779704 0.00408484 0.02244 0.0862528 0.297772 0.0425627 -0.126434 0.240457 0.167163 -0.0350915 -0.102557 -0.156574 -0.174375 -0.414366 -0.427057 -0.390769 -0.307556 -0.0188448 -0.2145 0.0985103 0.198518 0.191478 0.146406 -0.0619685 -0.124257 -0.0165647 0.00154982 0.000442804 0.0102513 0.0101334 -0.0513238 0.0579109 0.238684 0.0990189 0.210917 0.528839 0.228634 -0.0370116 -0.0321537 -0.0355598 -0.290974 -0.538449 -0.771794 -0.588597 -0.293379 -0.153102 -0.180456 0.173556 0.276001 0.319778 0.119818 -0.0381555 -0.11075 0.00374158 0.00708487 0.0101845 0.00597786 0.00139227 -0.0571045 0.0780778 0.172255 0.0450754 0.29874 0.50187 0.294475 -0.0735661 0.289893 0.131877 -0.0634169 -0.392753 -0.546653 -0.417907 -0.164686 -0.113483 -0.149687 0.134672 0.325348 0.213768 0.146004 -0.0105579 -0.0699376 -0.00609941 0.00664207 0.000221402 0.000221402 0.00212609 -0.039628 0.0280229 0.157336 0.0265381 0.221517 0.278355 0.100859 -0.086003 0.0763597 -0.0442416 -0.127954 -0.224865 -0.35486 -0.340927 -0.304071 -0.0484898 0.0383446 0.0982495 0.177001 0.113757 0.0623388 0.105567 -0.0494943 -0.0196771 0.0100414 0.000442804 0.00552989 0.00906083 -0.0865901 -0.0705444 0.177834 -0.0332272 0.279021 0.233982 -0.0191043 -0.173008 -0.262358 -0.348358 -0.498259 -0.464463 -0.365211 -0.30641 -0.266515 -0.0856893 -0.0839071 0.0487963 0.189351 -0.0437683 -0.110178 -0.00619181 -0.0419145 -0.0458169 -0.00715498 0 0.00553506 0.00384521 -0.0989057 -0.0923421 0.04385 -0.0546246 0.253929 0.172605 -0.0899494 -0.375128 -0.367977 -0.465861 -0.65836 -0.440895 -0.448088 -0.323768 -0.310474 -0.124669 -0.0483111 0.187184 0.114056 -0.061635 -0.14178 -0.11304 -0.0347696 -0.0154318 -0.00707211 0.00509225 0.00229235 0.00559238 -0.10845 -0.0689817 -0.118813 -0.188226 0.0427474 0.0972109 -0.0964944 -0.280399 -0.364646 -0.356084 -0.49925 -0.45551 -0.308029 -0.324097 -0.312048 -0.162553 0.259866 0.159866 0.0299953 -0.0570496 -0.0650295 0.0103664 -0.0171784 -0.0212817 0.000853871 0.00553506 -0.000969964 -0.000556917 -0.0826977 -0.10579 0.0387971 -0.0816 0.00342647 0.0842505 0.0241833 -0.220108 -0.415471 -0.366524 -0.48102 -0.415849 -0.226846 -0.276876 -0.440043 0.105657 0.378857 0.119167 -0.0165465 -0.179662 0.0072137 0.026302 -0.042522 -0.015777 0.00851481 0.00907749 0.00619025 -0.00406627 -0.00729724 -0.0857084 -0.0325566 0.0534448 -0.12755 -0.0640673 -0.190641 -0.292131 -0.216465 -0.445565 -0.542853 -0.49175 -0.308423 -0.190262 0.0209724 0.210184 -0.158433 -0.113043 -0.158452 -0.0733392 0.0636257 -0.00910046 -0.0182435 0.00204147 0.00863469 0.00398524 0.00686347 -0.0060077 0.00443333 -0.0280622 -0.145038 -0.0357958 -0.0944106 0.105712 -0.0775866 -0.309996 -0.319148 -0.529674 -0.600647 -0.471496 -0.182818 0.0823033 -0.0277286 -0.170045 -0.263031 -0.203919 -0.0821264 0.00793263 -0.0151359 -0.00233955 0.0106705 0.00644481 0.0104059 0.00332103 0 0.00327772 -0.0262264 -0.000496042 -0.0591913 -0.051794 -0.0632049 -0.0693517 -0.0729395 -0.250445 -0.342856 -0.21705 -0.118844 -0.000686471 0.0158294 -0.0504376 -0.103091 -0.108782 -0.245465 -0.136441 -0.0221882 -0.0393006 -0.00469279 -0.037002 -0.00482524 0.0104659 0.00154982 0.00642066 0.00596237 0.00171373 0.0179771 -0.0130036 -0.0260332 0.0296472 -0.00889817 0.0121304 0.0959102 0.0299439 -0.176181 -0.118176 0.123626 0.138951 0.107951 -0.0300983 -0.000143007 -0.0456094 -0.0223434 -0.0846088 -0.00411841 0.0313575 0.0628757 -0.0273949 -0.0330051 0.00863663 0.00708487 0.00664207 0.00797048 0.00929889 0.00568853 0.0247991 0.0156088 -0.0584629 0.0507012 0.188478 0.278018 0.298814 0.0875467 -0.0800965 0.0419618 0.079326 0.0969591 0.013916 -0.0485745 -0.0540505 -0.035446 0.00350717 0.00700075 0.0206471 0.0233968 0.0090203 0.00935529 0.00730627 0.000221402 0.0097417 0.00509225 0.00774908 0.00535272 0.00332326 0.00053576 0.00626894 0.0667149 0.141821 0.150891 0.0210698 -0.14048 -0.174904 -0.14467 -0.0713055 -0.0601228 -0.0151926 -0.00910769 -0.00701722 -0.0117938 0.0250036 0.0200118 -0.012187 0.00635539 0.00223327 0.00254146 0.00797048 0.00929889 0.00177122 0.00420664 0.0099631 0.000442804 0.00929001 0.00237568 -0.00625149 -0.00726929 0.00600088 0.0458032 0.00150363 0.0263995 0.00132361 -0.0300665 -0.0785678 -0.0352944 0.0402622 0.0658467 0.0271318 0.0187869 0.0175165 0.0160651 0.00446025 0.00406166 0.000239188 0.00774908 0.00265683 0.00199262 0.0108487 0 0.000885609 0.00154982 0.00420664 0.0108487 0.00264634 0.00285558 -0.00389962 -0.00653408 -0.00425143 0.0109527 -0.0151973 0.0099358 -0.00532895 0.0114553 0.0263524 0.0264276 0.00834588 -0.00209638 0.00652676 0.00931288 0.0108487 0.00420664 0.00730627 0.00376384 0.00819188 0.00752768 0.000885609 0.000221402 0.0101845 0.000885609 0.000221402 0 0.00287823 0.00509225 0.000221402 0.00553506 0.00819188 0.00752768 0.00398524 0.00132841 0.00553506 0.00619926 0.00110701 0.000885609 0.000664207 0.000442804 0.00907749 0.00774908 0.00265683 0.00575646 0.00597786 0.00243542 0.0106273 0.00287823 0.00664207 0.00774908 0.0104059 0.00797048 0.00863469 0.0103958 0.0115419 0.0106563 0.00154432 -0.00978862 0.00330421 0.00527983 -0.0178421 -0.0316773 -0.0321007 -0.0535336 -0.00612018 -0.00100396 0.00607257 0.00348682 0.00264823 0.00841328 0.00398524 0.000885609 0.00509225 0.00664207 0.00708487 0.000442804 0.0095203 0.00708487 0.00332103 0.00553506 0.00398524 0.0033761 0.002902 0.00376668 -0.0167529 -0.0362999 0.00162752 0.0108298 0.0292019 0.0262489 0.0258483 0.0343886 0.0929284 0.0667283 -0.0463 -0.0872735 -0.0801477 -0.000485869 0.0105858 0.0030146 0.0044273 0.00332103 0.00354244 0.0095203 0.0106273 0.000221402 0.0101845 0.0095203 0.00751969 -0.016284 -0.0231477 -0.00812015 0.0316878 0.0290914 -0.00211118 0.146732 0.412757 0.368765 0.254522 0.239759 0.033507 -0.0641087 -0.147221 -0.228402 -0.256337 -0.106569 -0.0118483 0.00636517 0.0110819 0.00247232 -0.000255515 0.00110701 0.00774908 0.00376384 0 0.00722315 0.0165935 -0.0594067 -0.0993023 -0.156048 -0.0866941 0.0527923 0.375808 0.482529 0.441407 0.178121 0.230619 0.0181235 -0.0917175 -0.66135 -0.512691 -0.44257 -0.541916 -0.314462 -0.11656 -0.0776839 -0.0323823 -0.0187431 -0.00398981 0.00464945 0.0106273 0.0028725 0.00579461 0.0115189 0.0836933 0.0551543 0.0315417 -0.175006 -0.108922 -0.161658 0.145418 0.273982 -0.0517002 0.359891 0.671681 0.571445 -0.186667 -0.681258 -0.468795 -0.502435 -0.348702 -0.231318 -0.0521787 -0.173822 -0.136942 -0.0524372 -0.00036501 0.00420664 0.0108487 0.0108487 0.00908452 0.0273665 0.114076 0.181817 0.164147 -0.129241 -0.38609 -0.352459 -0.240886 -0.399705 -0.427199 0.0323779 0.7061 0.190633 -0.515511 -0.4958 -0.359171 -0.334414 -0.214278 -0.150467 -0.193057 -0.246068 -0.174217 -0.0858903 -0.0181216 -0.00752545 0.00531365 0.0079246 0.0014057 0.0143757 0.128732 0.0347629 -0.0969399 -0.398193 -0.746639 -0.351122 -0.108298 -0.321627 0.014494 0.0290678 -0.0493162 0.0719411 -0.165891 -0.42007 -0.648505 -0.500782 -0.178354 -0.469731 -0.460454 -0.216385 -0.140505 -0.122998 -0.0465854 -0.0269405 0.00354244 0.00594586 0.00173996 0.0245768 0.0493397 -0.0649329 -0.189957 -0.250134 -0.303518 -0.405594 -0.57592 -0.462466 0.263984 0.190246 -0.0535121 0.0774381 0.292716 -0.0828198 -0.598868 -0.255731 -0.243314 -0.397704 -0.507144 -0.463277 -0.45385 -0.243933 -0.076274 -0.00200458 0.00772441 0.00185443 -0.0116261 -0.128626 0.0547233 -0.140103 -0.262622 -0.139881 -0.0612564 -0.514998 -0.383495 -0.478436 -0.00501118 0.419375 -0.0395054 0.151734 0.774473 0.0708512 -0.118993 -0.0910806 -0.177043 -0.0413003 -0.227048 -0.526163 -0.553259 -0.310369 -0.0838203 -0.00261527 0.00961 0.0165956 -0.00729536 -0.163323 -0.0163845 -0.111916 -0.250725 -0.260518 -0.0522183 -0.344115 -0.508582 -0.44867 -0.142364 -0.16677 -0.0793125 -0.12898 0.219064 -0.273677 -0.342331 0.0177426 0.126916 0.0564781 -0.0523871 -0.389293 -0.276789 -0.197051 -0.141515 -0.0234813 0.00891072 0.0166237 -0.0188604 -0.106719 0.0414248 -0.102843 -0.199006 -0.0216756 -0.0211256 -0.363791 -0.170074 -0.529503 -0.0879453 -0.356323 -0.325072 0.147036 -0.626593 -0.456091 -0.207486 -0.128075 0.176091 0.133216 -0.0612433 -0.245028 -0.245614 -0.156239 -0.165635 -0.0537489 0.0097417 0.00538975 -0.0308531 -0.0891708 -0.0830958 -0.164962 -0.125099 -0.203731 -0.157936 -0.0239372 -0.0974757 0.206709 0.250408 0.188804 -0.0971471 0.0658709 -0.0622342 -0.140335 -0.404229 -0.471422 -0.326864 -0.16312 -0.0655276 -0.0954797 0.0305404 0.0415956 -0.0179041 0.0108487 0.00774908 0.00914159 -0.00988547 0.0484287 0.0238313 0.0581862 0.151702 0.126836 0.12238 0.111079 0.274647 0.694603 0.567734 0.561304 0.178768 0.49892 0.155428 0.171182 -0.543707 -0.371 0.0652108 0.237265 0.184594 -0.0245652 -0.0835906 0.02717 0.00490231 0.00132841 0.00774908 0.0101845 -0.00285167 0.0527958 0.0893415 0.0914 0.104132 0.389366 0.215048 0.324125 0.114545 0.463163 0.0871848 0.122603 0.206094 0.0314536 0.160975 0.490516 0.140482 0.196426 0.131574 0.311536 0.186566 -0.0657938 -0.181536 0.0251953 -0.0163802 0.00752768 0.00332103 0.00243542 0.00683761 0.0925943 0.0690332 -0.059292 0.23741 0.651945 0.202558 0.307722 0.30773 0.14038 0.172842 0.744645 0.524012 0.519726 0.191276 0.390016 0.309142 0.145575 0.186607 0.288015 0.417553 0.000666122 0.0575103 0.133731 -0.0060021 0.00474381 0.00841328 0.0105669 0.00148514 0.0718713 0.0699055 -0.242037 0.0474323 0.313388 0.240633 0.274783 0.43272 0.361821 0.186936 0.704782 0.868499 0.777228 0.0569063 0.308537 0.132701 0.055392 0.191318 0.276637 0.415697 0.0922739 0.0595051 0.0435092 0.0233656 0.00505848 0.000885609 0.00487085 -0.00603598 0.0445749 0.102703 -0.284096 -0.176655 0.129138 0.0354062 0.1689 0.189367 -0.176161 -0.034603 0.50898 0.560071 0.317827 -0.191416 0.119384 0.0284629 -0.0510615 0.0580447 0.245438 0.172141 0.162221 0.14101 0.0321146 0.0236605 0.00831711 0.00863469 0.00019033 0.00153716 -0.0193772 0.100917 -0.0551257 -0.349062 -0.0588882 -0.0802672 -0.191718 -0.543965 -0.307441 0.0115108 0.159754 0.595742 0.387394 0.052322 -0.0898658 -0.0509289 -0.134573 -0.0604955 -0.159433 -0.0807614 0.219494 0.195382 0.121316 0.0726013 0.0282044 0.00376384 0.00480257 -0.00260414 -0.0544428 0.0528742 -0.02501 0.0562158 -0.0374853 -0.143046 -0.188028 -0.4531 -0.332553 -0.505648 -0.417362 0.750534 0.593633 0.186292 0.0270119 -0.221572 -0.253494 -0.0455918 -0.153314 0.113844 0.205226 0.086172 0.11402 0.0645936 0.00586482 0.00420664 0.00479877 -0.0270764 -0.0644848 0.0166959 0.00612863 0.0546814 -0.021775 -0.233766 -0.156206 -0.400287 -0.360753 -0.0464049 0.0188533 0.923372 0.538875 0.58416 -0.147201 0.0480295 -0.200775 -0.0451127 -0.0390983 0.165758 -0.0597857 -0.133227 0.0285823 0.00968276 0.00154982 0.0106273 0.00509225 -0.0397279 0.00541599 0.0547884 0.0438215 0.0664 -0.0155494 -0.279939 0.135035 -0.187332 0.206428 0.0810689 0.080813 0.30105 0.29985 0.0328193 -0.0584106 0.140033 -0.254687 -0.0791828 -0.0172529 -0.00711523 -0.105385 -0.0985814 0.0139113 0.00624218 0.000442804 0.00154982 0.0099631 -0.0132089 0.0442304 0.164706 0.10445 0.00439257 -0.104139 -0.330324 0.203717 -0.198454 -0.309645 -0.291386 -0.124429 -0.250228 0.0401733 0.120585 -0.230262 -0.112761 -0.192505 0.0620441 -0.0797734 -0.00245235 -0.0487208 -0.0227298 0.00294031 0.00819347 0.00797048 0.0097417 0.010843 0.00886197 0.0420211 0.0720104 0.140873 -0.134325 -0.252372 -0.649245 -0.299321 -0.0369365 -0.26478 -0.219478 -0.0582289 -0.195651 -0.267452 0.0833307 -0.126117 0.0447882 -0.157151 0.0465405 0.0647729 0.00972347 0.00171143 0.0079754 0.015099 0.00421394 0.00575646 0.00885609 0.000221402 0.00332103 0.0141088 -0.00697965 0.103948 0.0456158 -0.0755775 -0.231913 -0.354374 -0.248413 -0.155148 -0.066733 -0.00505742 -0.140536 -0.12856 -0.132515 -0.197632 0.0219249 0.309399 0.171945 0.072573 0.0335965 0.0111632 0.00261917 0.00505472 0.00642066 0.00420664 0.00199262 0.0106273 0.0104059 0.00103565 -0.0111875 -0.00921593 -0.0399791 -0.0385636 0.0618603 -0.013004 -0.0424043 -0.180494 -0.284111 -0.257985 -0.504801 -0.502202 -0.497421 -0.428491 -0.127772 -0.0639239 -0.0785292 -0.0439811 0.0189746 0.0116704 0.00464996 0.00227292 0.00154982 0.00863469 0.00774908 0.00797048 0.00221402 0.0097417 0.00794775 0.00242015 -0.0239216 -0.0148613 -0.0558745 -0.0645952 -0.0620256 -0.0510009 -0.0678644 -0.104303 -0.175703 -0.18697 -0.214058 -0.150459 -0.0644157 -0.068348 -0.0507388 -0.0251219 0.00589946 0.0039658 0.00156625 0.00752768 0.00110701 0.00730627 0.0097417 0.00265683 0.00487085 0.00686347 0 0.00774908 0.00573681 0.00797867 0.0176548 0.00630305 0.0079665 -0.00551519 0.00633109 -0.0408989 -0.00986843 -0.00658465 -0.0138166 -0.0151387 -0.0187385 -0.0104448 0.0037776 0.0108239 0.00354244 0.00841328 0.00110701 0.00132841 0 0.00309963 0.00929889 0.00110701 0.0104059 0.00863469 0.00420664 0.00487085 0.00442804 0.00464945 0.00154982 0.0101845 0.00199262 0.000885609 0.00442804 0.00863469 0.00553506 0.00708487 0.00309963 0.0104059 0.00199262 0.00819188 0.00110701 0.00752768 0.00553506 0.00642066 0.00730627 0.0095203 0.00376384 0.00885609 0.0108487 0.00442804 0.00110701 0.00929889 0.00553506 0.00418506 0.0305383 0.0259778 0.030072 0.0156371 -0.000843094 -0.00573379 -0.00572379 -0.0677272 -0.133782 -0.159678 -0.0262116 -0.0258612 -0.0146342 0.00754838 0.00307866 0.00354244 0.00487085 0.00487085 0.000442804 0.0108487 0.000221402 0.00841328 0.00929889 0.00464945 0.00619926 0.00907749 0.00907749 0.0144651 0.0272909 -0.0101723 -0.0663942 -0.00895017 0.0567298 0.16965 0.111419 0.140021 -0.146046 -0.108988 0.0719652 -0.102782 -0.303714 -0.328271 -0.180579 -0.0787197 -0.0554444 0.00251588 0.00553244 0.0097417 0.0104059 0.00619926 0.0095203 0 0.00354244 0.00774908 0.00479738 0.0102893 -0.0148315 -0.0772192 -0.0972553 0.0271128 0.157445 0.425224 0.854215 1.19649 1.05213 1.24624 1.19995 0.548005 0.225885 -0.314149 -0.346169 -0.204736 -0.179486 -0.0720986 -0.0291023 -0.0122847 -0.00159998 0.00442804 0.00154982 0.00354244 0.0106273 0.000628902 0.0183641 0.00905215 0.037063 0.122838 0.0800082 0.15171 0.834857 1.29766 1.391 1.42552 1.15616 1.48835 1.44211 0.783642 0.289215 0.266753 -0.361741 -0.427278 -0.165433 -0.10019 -0.0556378 0.0361705 0.0449868 0.0095203 0.00575646 0.00995926 0.00282828 -0.00617896 0.0410247 0.0592757 0.103073 0.0830758 0.00472973 0.187388 0.432742 0.26765 0.5037 0.819085 0.999552 1.46721 0.928658 0.971979 1.413 0.882907 0.0743221 -0.216259 -0.142964 -0.251919 -0.224418 0.0184471 0.0385519 0.0095203 0.00398524 0.00885609 0.00611105 -0.0026837 0.0508773 0.102961 -0.0221257 -0.298391 -0.32468 -0.278632 -0.370278 -0.426999 -0.512433 -0.374501 0.0480154 -0.208035 -0.123582 0.346077 1.02544 1.20004 0.336212 0.0164277 -0.257652 -0.420024 -0.208779 -0.0349065 0.00207835 0.00196437 0.00797048 0.00359003 -0.020145 -0.008066 0.161908 0.087893 -0.0911686 -0.407531 -0.624243 -0.615859 -0.903535 -0.873852 -1.16514 -0.730859 -0.872393 -0.970019 -1.04057 -0.391302 0.405979 1.29262 0.636047 0.427873 -0.198237 -0.518903 -0.199759 0.125325 0.0990666 0.00969293 0.00487085 -0.000631005 -0.0145339 0.00339059 0.216629 0.022288 -0.155685 -0.387845 -0.865495 -0.99899 -0.646463 -0.507354 -0.502229 -0.428139 -0.530719 -0.0654109 -0.388941 -0.43597 -0.0677772 0.61046 0.674212 0.618552 0.218391 -0.307353 -0.203646 0.13876 0.155858 0.0721746 0.000842423 -0.0135371 -0.0058153 0.0904965 0.221881 0.189109 -0.201314 -0.131227 -0.720657 -0.654591 -0.337218 -0.0719217 -0.605403 -0.406614 -0.523713 0.38879 0.197283 0.121289 0.425904 0.246346 0.74849 0.652936 0.359906 -0.0791714 -0.038902 -0.12627 0.000360272 0.0150808 0.00597777 -0.00596861 -0.000283333 0.119724 0.269824 0.174576 -0.164144 -0.281975 -0.508798 -0.747549 -0.415078 -0.730045 -1.21036 -0.796326 -0.38609 -0.355918 -0.0280858 0.243174 0.371222 0.252041 0.369745 0.540623 0.173429 -0.236402 -0.0319138 0.00511577 0.0540384 0.00671215 0.00718959 -0.00911414 0.00706817 0.133927 0.209595 0.173959 -0.134564 -0.313038 -0.733727 -0.859959 -0.702645 -0.762582 -1.18113 -0.652252 -0.0280849 -0.422549 -0.273542 0.206705 0.465438 0.378435 0.529424 0.229407 -0.199314 -0.480269 -0.0137617 0.146801 0.0599908 0.0218083 0.00642066 -0.00922207 0.0300936 0.11195 0.137118 -0.0720385 -0.228758 -0.39346 -0.451399 -0.202718 -0.684482 -0.718892 -0.715356 -0.303842 0.267749 -0.0288793 -0.384417 -0.0764631 0.272033 0.8002 0.625123 0.286355 -0.435283 -0.525777 -0.0832709 0.124915 0.00133078 0.00575646 0.0099631 -0.00449184 0.00344162 0.088281 0.0310083 -0.29946 -0.232653 -0.505289 -0.180457 -0.146606 -0.463724 -0.952023 -0.47043 0.522859 0.569145 -0.363888 -0.744324 -0.582016 0.428459 0.203209 0.507848 0.320134 -0.284803 -0.578466 -0.101057 0.142372 -0.00530092 0.00863469 0.000442804 0.00686347 0.0180265 0.0554171 0.0325892 0.0149282 -0.37336 -0.821461 -0.134792 -0.0156655 0.126897 -0.610574 0.137134 0.859947 -0.151956 -0.813712 -0.990686 -0.405386 0.316843 0.22961 0.195558 0.286824 -0.360256 -0.476045 -0.157062 0.0757862 0.026747 0.000442804 0.00154982 0.0101845 0.00936068 0.001187 0.107761 0.34673 -0.268113 -0.38943 0.495437 0.00891018 -0.326639 -0.440513 0.52316 0.395565 -0.129887 -1.03012 -0.545417 -0.0266765 0.32935 0.0345972 -0.517086 0.205726 -0.394082 -0.123658 -0.198619 0.0591322 0.0692198 0.00986632 0.00531365 0.00598992 -0.00861741 0.0272503 0.201487 0.0448494 -0.0159763 0.487507 -0.203442 -0.178402 -0.441772 -0.0302513 -0.0898825 -0.0174181 -0.163562 -0.197139 0.14775 0.576 0.036882 -0.193369 -0.27051 -0.116774 -0.144253 -0.0918339 -0.0152414 0.242012 0.0906404 0.0398475 0.00132841 0.00575646 0.00159038 0.0848933 0.238577 -0.152268 0.173167 0.403363 0.344085 0.140762 -0.055775 0.00387775 0.00994565 -0.344629 -0.147248 0.893517 0.517746 0.401587 0.439175 0.233174 -0.585268 -0.41281 -0.799827 0.245912 0.468957 0.149482 0.0729379 0.0357882 0.000885609 0.00905153 0.0216093 0.192744 0.487281 -0.0547834 0.174422 0.516605 0.575039 0.242593 0.31094 0.411598 -0.150083 -0.212953 -0.0509373 0.0420887 0.335889 0.555796 0.461779 0.71499 0.126078 -0.668024 -0.681163 0.141692 -0.0702936 -0.0188261 0.0891568 0.031093 0.00398524 0.0152995 0.0256614 0.381858 0.367702 0.0818858 0.0448806 0.360531 0.179164 0.114958 0.118618 0.014513 0.114306 -0.303187 0.014271 0.171031 0.349388 0.0746282 0.381661 0.341622 0.0381382 -0.234286 -0.209705 0.201035 0.0651026 0.116237 0.0589091 0.00904296 0.00177122 0.0117259 0.00786064 0.390252 0.35292 0.590136 0.268101 0.649273 0.839104 0.914866 0.557721 0.514234 0.149005 -0.3225 -0.0546895 0.0577248 -0.0484031 -0.290783 0.135612 0.0460182 -0.0127423 -0.00921384 0.129583 0.0871308 0.153406 0.0713785 0.0134963 0.00132841 0.0104059 0.00553506 -0.00615156 0.244095 0.414971 0.444705 0.534372 0.77255 0.573419 0.130007 0.293963 0.291238 -0.168532 -0.746818 -0.360258 -0.412195 -0.128498 0.0622747 -0.190486 -0.0620454 0.191174 0.396755 0.351725 0.0472792 0.0478674 0.0282291 0.00611874 0.00819188 0.00332103 0.0097417 0.00434176 0.0648879 0.183601 0.271937 0.237718 0.518487 0.435553 0.124113 0.00788898 -0.233309 -0.427357 -0.740486 -0.573589 -0.531281 -0.369929 -0.23423 -0.117058 -0.0745759 0.082694 0.162262 0.117648 0.0536048 0.045644 0.0191767 0.00479023 0.00819188 0.0106273 0.0104021 0.00627848 0.0678187 0.108318 0.0554134 -0.169443 -0.0679386 0.0507497 -0.227236 -0.283894 0.0304486 -0.336365 -0.206182 -0.232961 -0.516259 -0.173263 -0.123246 -0.13048 -0.268072 -0.0420286 -0.014995 -0.0270348 -0.014422 0.0482374 0.0477477 0.00464891 0.00132841 0.0097417 0.0101845 0.0095203 0.0387558 0.00640214 -0.149606 -0.00649298 -0.0323195 -0.0493147 -0.284054 -0.211787 0.00393326 -0.344139 -0.463253 -0.331295 -0.36972 -0.29469 -0.0412267 0.118766 0.137201 0.0641565 0.0220687 -0.0160567 -0.00678011 0.00813323 0.00827659 0.00664207 0.00642066 0.00487085 0.000221402 0.00774908 0.00737894 -0.0911294 -0.0872295 0.0289173 0.213117 0.0871199 -0.0960603 -0.0486151 -0.126327 -0.319842 -0.301857 -0.131822 -0.0454315 -0.0232491 0.178633 0.260681 0.249145 0.0408534 -0.00510434 0.000509858 0.0023706 0.00411289 0.00614943 0.000442804 0.00442804 0.00309963 0.00708487 0 0.00797048 0.00789656 0.00586153 -0.0193163 0.143777 -0.0066703 -0.0553379 0.0129538 -0.124198 -0.211971 -0.144156 -0.0296685 0.123132 0.12476 0.063003 0.127257 0.158617 0.0640598 0.0165463 0.00552626 0.00630761 0.00830399 0.00199262 0.00177122 0.00309963 0.00863469 0.00287823 0.00752768 0.000664207 0.0099631 0.00797048 0.00882813 0.00567746 0.0309306 0.0584945 0.0298627 0.0103228 0.0690286 0.168732 0.0300769 0.00264596 0.019868 0.0170596 0.0214614 0.0490918 0.00731919 0.00263669 0.00730627 0.00619926 0.00597786 0.00907749 0.00265683 0.00354244 0 0.00442804 0.00664207 0.00863469 0.00730627 0.00354244 0.0097417 0.00686347 0.00110701 0.00752768 0.00354244 0.00642066 0.00686347 0.00819188 0.00553506 0.0101845 0.00907749 0.0099631 0 0.00199262 0.00841328 0.00177122 0.00708487 0.0099631 0.00487085 0.00354244 0.00531365 0 0.00154982 0.00797048 0.00398524 0.00199262 0.00177122 0.00111953 0.00695014 0.0144002 0.00343346 0.00574553 0.00431961 0.00228446 -0.00330121 -0.0109958 -0.032927 -0.0489539 -0.00242503 -0.000567541 -0.00408715 0.0048491 0.00531077 0.00265683 0.00686347 0.00287823 0.00487085 0.00354244 0.00177122 0.0099631 0.00752768 0.00752768 0.0104059 0.0095203 0.00487085 0.00474573 0.00634625 0.00884445 -0.0121291 -0.0168422 0.00511076 -0.0039527 -0.0505885 -0.0707569 -0.0415614 -0.028252 0.0170917 0.000719651 0.0226939 0.03743 0.0605795 -0.00849262 -0.00832804 0.00397436 0.00487022 0.00841328 0.00664207 0.0101845 0.000885609 0.00907749 0.0095203 0.00885609 0.00612445 0.0132387 0.030507 -0.00387748 -0.0597348 0.0106112 -0.0125095 -0.0736339 -0.0740251 -0.0901273 -0.0593355 -0.013246 0.0849442 0.143763 0.143643 0.0981972 0.00855907 -0.0628259 -0.0386317 -0.0376293 -0.0201448 -0.00408307 0.00621771 0.00132841 0.00885609 0.00509225 0.000442804 0.0102427 -0.00424475 0.0214926 0.0189613 -0.0379638 -0.0642373 -0.0406948 -0.0461371 -0.0233756 -0.0750552 -0.0715169 -0.100241 -0.0406249 -0.0647629 -0.0486777 -0.0834327 0.00556959 0.0410168 -0.0242346 0.0742609 0.0532277 -0.00522771 0.0444699 0.0031121 0.00531365 0.00464945 0.0092846 0.00665679 0.0051992 -0.0197466 -0.0281511 -0.0155614 -0.061846 0.0994365 0.00240933 -0.0248528 0.0715475 -0.14107 -0.441004 -0.233589 -0.135601 -0.141373 -0.175358 -0.163608 -0.147282 -0.105839 0.0562984 -0.0136513 0.12152 0.0987752 0.0194428 0.0102324 0.00730627 0.00929889 0.00863469 0.00242697 0.00742565 -0.0160944 -0.0958815 -0.124002 -0.0584374 -0.0361295 0.00950177 0.0598601 -0.265027 -0.334202 -0.248009 -0.138764 -0.204599 -0.276816 -0.325859 -0.307579 -0.118671 0.025628 0.04976 0.0553501 0.164287 0.122495 0.00952695 0.00999872 -0.00323364 0.00287823 0.00819292 0.0185 0.00610633 -0.0599573 -0.157393 -0.143546 -0.126941 -0.0714626 0.0889736 -0.0907174 -0.184106 -0.276994 -0.438197 -0.305261 -0.370451 -0.258021 -0.240866 -0.0590833 -0.0174599 0.203433 -0.00866429 -0.0871096 0.0843867 0.221503 0.0763105 0.0303714 -0.00430347 0.0097417 0.00188137 0.0171287 -0.00524909 -0.0888811 -0.0772884 -0.115534 -0.105217 0.131508 0.146241 0.0109586 -0.205566 -0.314189 -0.301362 -0.281368 -0.368221 -0.364896 -0.472405 -0.260963 -0.0510329 0.088309 -0.0146356 -0.0653135 0.128186 0.216081 0.0843804 0.117435 0.0401235 0.00261887 0.0117654 0.00878628 -0.0594931 -0.0959389 -0.0981815 -0.0433472 0.0704651 0.113103 0.168477 -0.000927989 -0.229873 -0.221492 -0.329337 -0.18183 -0.328571 -0.383428 -0.347431 -0.297096 -0.204374 -0.0798823 -0.0247533 0.0356787 0.204079 0.157122 0.160619 0.0615163 0.0114891 0.00162028 0.00851004 0.00143039 -0.0688535 -0.0952599 -0.116972 -0.0680724 0.031404 -0.0740797 0.180098 0.0647466 -0.378303 -0.247625 -0.105897 -0.0693598 -0.00183611 -0.196635 -0.159763 -0.111992 -0.175917 -0.0502349 0.00315695 -0.0318239 0.0727057 0.219155 0.236934 0.112582 0.0101726 0.000493409 0.00418599 -0.00281029 -0.0509919 -0.0432821 -0.135611 -0.110548 0.0172014 0.112905 0.118667 0.0548092 -0.0186234 -0.105567 0.126304 0.0262914 -0.0147321 -0.244194 -0.0952138 -0.085328 -0.0273545 -0.0825199 -0.118209 -0.0653348 -0.0553948 0.102216 0.215665 0.141746 0.00326127 0.00841328 0.015273 -0.00516192 -0.0293515 -0.0182094 -0.0939749 -0.153054 -0.0095485 0.172384 0.011056 0.0265573 0.0995735 0.210603 -0.203561 -0.0813989 -0.06926 -0.168625 -0.093121 -0.202026 -0.0969415 -0.0480031 -0.227091 -0.235311 -0.242702 -0.0800737 0.0694764 0.0354722 0.0099631 0 0.00923184 -0.00346522 -0.00239799 0.0358612 -0.0255907 -0.193176 -0.0266635 0.179205 0.21069 0.0765919 -0.128419 -0.248483 -0.374244 -0.366665 -0.184457 -0.123191 -0.0911887 -0.150559 0.0383038 -0.0262951 -0.229455 -0.291474 -0.294071 -0.143761 -0.000809883 0.00915418 0.00774908 0.00752768 0.0097417 -0.00939472 0.00598527 0.0849422 -0.0467822 -0.192554 -0.0206187 0.110623 0.125973 -0.0698407 -0.0431442 -0.0586516 -0.213315 -0.208384 -0.404948 -0.423297 -0.339942 -0.112351 -0.0301196 -0.0853405 -0.291564 -0.285544 -0.226827 -0.0628766 0.0258228 0.00485488 0.00664207 0.00575646 0.00664207 0.00847414 0.0352631 0.126292 -0.076952 -0.245119 -0.121544 -0.0354748 -0.167413 -0.0892052 -0.0918366 -0.0219871 -0.163635 -0.296087 -0.371433 -0.427485 -0.328091 -0.207307 -0.0891689 -0.064291 -0.214002 -0.264875 -0.167993 0.106354 0.0825742 0.00974947 0.0101274 0.00332103 0.000871311 0.0117802 0.0281342 0.0772531 -0.00509123 -0.250045 -0.167806 -0.0846501 -0.255245 -0.122265 -0.228053 -0.348923 -0.468515 -0.375864 -0.189238 -0.275553 -0.342236 -0.107696 0.0309437 -0.207549 -0.163305 -0.245008 -0.199081 0.0131231 0.0311355 -0.00385167 0.00534759 0.00708487 0.00797048 0.00714308 0.00473775 -0.0177984 0.0674829 -0.116454 -0.0306353 -0.136856 -0.279875 0.0430501 -0.199738 -0.176474 -0.283046 -0.261246 -0.22172 -0.225877 -0.432415 -0.33031 -0.21461 -0.233725 -0.188712 -0.167678 -0.19656 0.0132433 0.0285134 0.00552579 0.00611157 0.00686347 0.00696075 0.0125286 0.00696671 -0.019337 0.00795145 -0.0416585 -0.0801427 -0.220789 -0.160444 0.012109 0.00014331 0.203453 0.0715718 -0.225845 -0.225787 -0.244358 -0.211205 -0.314152 -0.238518 -0.128647 -0.18407 -0.122705 0.00156511 0.0326789 0.0219687 0.0107627 0.00779437 0.00664207 0.00529457 0.00973602 0.0265346 0.0383702 0.034514 -0.0291793 -0.0874234 -0.0506028 -0.0926852 -0.104008 0.028781 -0.0334755 -0.136501 -0.18787 -0.19057 -0.27179 -0.370821 -0.31021 -0.160012 0.0345688 -0.150387 -0.0100613 0.0731606 0.101001 0.0215051 0.0174859 0.00301423 0.00841328 0.00983267 0.0456182 0.0597938 0.0762985 0.000830791 -0.0781855 -0.170706 -0.130128 -0.110636 -0.125655 -0.19211 -0.200905 -0.258222 -0.197789 -0.280397 -0.302677 -0.325307 -0.186225 0.039714 0.00762507 0.0611666 0.0897391 0.0894836 0.0900247 0.00950874 0.00892773 0.00199262 0.00553506 0.00752768 0.0534403 0.0529971 0.0459292 0.0123655 -0.0478913 -0.121052 -0.153696 -0.102548 -0.15019 -0.240729 -0.211386 -0.263005 -0.19202 -0.167431 -0.129395 -0.281738 -0.18481 0.027697 -0.015525 0.0965673 0.0954435 0.0972698 0.0930026 0.00541965 0.011391 0.00929889 0.00487085 0.00774908 0.0173189 0.0486967 0.0253797 -0.03009 -0.117339 -0.24626 -0.277536 -0.194108 -0.153136 -0.045078 -0.156576 -0.224199 -0.226566 -0.224272 -0.296121 -0.309433 -0.164964 0.038124 0.0229919 0.0767232 0.0587355 0.0433161 0.0148788 0.00723217 0.006457 0.000885609 0.00841328 0.00485656 0.0105465 -0.0174134 -0.0046726 -0.0731384 -0.0728032 -0.172755 -0.134139 -0.110074 -0.184938 -0.330139 -0.37048 -0.190957 -0.113698 -0.132357 -0.201533 -0.0637135 0.10814 0.107888 0.0402882 0.147224 0.0728905 0.0397291 0.00161254 -0.00284354 0.00886228 0.00376384 0.0104059 0.00398524 0.00509225 0.00195847 -0.0182876 -0.0344366 -0.0772008 -0.0891798 -0.152562 -0.0322351 0.0137958 0.00191265 -0.0246391 0.141422 0.13303 0.130373 0.155796 0.0871057 -0.00143229 -0.0208901 0.022677 0.117341 0.0359615 0.016452 0.000392035 0.0036148 0.00686347 0.00531365 0.00841328 0.00531365 0.0095203 0.00746747 0.00142281 -0.0153324 -0.028328 -0.0438025 -0.00815911 0.00992807 0.0376002 0.0237396 -0.0283931 0.037096 -0.028241 -0.0441033 -0.0201763 -0.0554623 -0.0626374 -0.109347 -0.0174922 0.0139045 0.0128594 0.00989429 0.00318382 0.00948734 0.00885609 0.00420664 0.00309963 0.00509225 0.0095203 0.000442804 0.0103895 0.00129421 -0.0108082 -0.0256321 -0.0349253 -0.00879833 -0.00845761 -0.020558 -0.0447573 -0.0673544 -0.0443151 -0.0672484 -0.0511983 -0.0453771 -0.0453566 -0.0966699 -0.0536194 -0.00953721 0.00367352 0.00873776 0.00356591 0.00420664 0.00730627 0.00730627 0.00287823 0.00553506 0.000442804 0.00597786 0.0108487 0.0104059 0.006848 0.0100312 -0.00346588 -0.0115295 0.00028287 0.0109639 -0.00926594 -0.00974447 0.00284215 -0.00591477 -0.00519755 -0.000818764 -0.00292213 -0.07153 -0.00199301 0.000208191 0.00487085 0.000885609 0.00332103 0.00398524 0.0097417 0.00730627 0.00819188 0.00664207 0.00354244 0.000664207 0.00110701 0.00442804 0.00708487 0.00132841 0.00398524 0.00309963 0.00110701 0.00132841 0.00752768 0.0099631 0.000221402 0.00309963 0.00265683 0 0.00531365 0.00907749 0.00531365 0.0101845 0 0.00177122 0.0104059 0.00531365 0.00265683 0.00332103 0.0095203 0.00199262 0.0106273 0.00708487 0.00907749 0.00386987 0.00885006 0.0110684 0.0134566 0.0101261 0.000594227 0.00360479 0.0200405 0.00967047 0.014432 0.0198048 0.00483312 0.00724466 0.00934282 0.00422495 0.00376652 0.00177122 0.00265683 0.0095203 0.00132841 0.00287823 0.000442804 0.00132841 0.00819188 0.00354244 0.00464945 0.00664207 0.00597786 0.00474492 0.00430061 0.00559279 0.00892316 -0.0817488 -0.0251017 0.0256148 -0.00841218 -0.03139 0.0380054 0.0341173 0.00591776 0.0209504 0.0812233 0.104579 0.117027 0.0162528 0.00424957 0.00821353 0.00487038 0.00597786 0.00642066 0.00619926 0.00885609 0.00730627 0.00797048 0.00597786 0.000693045 0.00629142 0.0239743 0.0483996 0.0183894 -0.0137616 0.0558756 0.151798 0.189134 0.0774161 0.0304258 0.0425773 -0.0256424 0.0566397 0.254797 0.256535 0.255611 0.1448 0.0142134 0.00626051 0.00173423 0.00802291 0.00760155 0.00553506 0.00420664 0.00442804 0.00110701 0.002071 -0.0102609 0.0204779 0.029215 0.0886067 0.11728 0.113893 -0.0329142 0.0387119 -0.0786651 -0.159149 -0.412219 -0.255797 -0.310654 -0.495838 -0.338644 -0.0176968 0.324642 0.339778 0.275453 0.245587 0.117327 0.0570705 -0.0304458 0.00132841 0.00332103 0.00596062 0.00730435 0.00845231 -0.0285811 -0.0368321 -0.0332808 0.0406256 0.24938 0.0104381 -0.00384694 -0.0385747 -0.330237 -0.603491 -0.202499 -0.408451 -0.588082 -0.575567 -0.628895 -0.357725 0.0196394 0.192165 -0.0106076 0.274231 0.247486 0.068053 -0.0353042 0.0097417 0.0099631 0.00929889 0.00185294 0.00815132 -0.0518151 -0.176189 -0.160718 0.0685143 -0.0257645 -0.142145 -0.264307 -0.571862 -0.868287 -0.862817 -0.497299 -0.444541 -0.750352 -1.07898 -0.748128 -0.488822 -0.276555 -0.226437 -0.0773618 0.131327 0.142983 -0.0569375 -0.00503375 -0.019829 0.00464945 0.0107691 0.00913956 0.018484 -0.121154 -0.275051 -0.240934 -0.140412 -0.267756 -0.395163 -0.511083 -0.606633 -0.573125 -0.70785 -0.799801 -1.01597 -0.596318 -0.528388 -0.367044 -0.471871 -0.439299 -0.660061 -0.38436 -0.0833179 0.19616 0.130745 0.160896 -0.0342861 0.000221402 0.00918772 0.0100021 0.00695026 -0.155366 -0.219356 -0.238595 -0.274638 -0.438928 -0.394389 -0.377015 -0.449886 -0.323661 -0.488978 -0.636289 -0.830197 -0.59007 -0.379942 -0.356332 -0.608432 -0.278477 -0.140222 0.0450681 0.435608 0.538467 0.300947 0.407894 0.0639839 0.00799211 0.00851829 0.0133812 -0.0417202 -0.189489 -0.261809 -0.19303 -0.158808 -0.386622 -0.356878 -0.0935341 -0.132731 -0.151127 -0.262249 -0.357643 -0.404917 -0.113272 0.0975728 -0.176385 -0.544658 -0.133634 -0.0339048 0.255309 0.530256 0.510874 0.421686 0.159496 0.0199907 0.00238092 0.00728307 0.00710552 -0.0829359 -0.170739 -0.189173 -0.059033 -0.107492 -0.556081 -0.29933 -0.092291 -0.369294 -0.330522 -0.125991 -0.21689 0.32441 0.356518 0.046185 -0.422347 -0.437622 -0.23133 0.0507685 -0.0719469 0.326352 0.591275 0.616635 0.297216 0.014113 0.007373 0.00241729 0.0056056 -0.0369798 -0.0608854 -0.145228 -0.155802 -0.0808881 -0.25997 -0.154229 -0.272912 -0.0603371 -0.352975 -0.0191251 0.198506 -0.198235 -0.449689 -0.672737 -0.691686 -0.400532 -0.484831 -0.182294 -0.228515 0.0763593 0.104418 0.447801 0.325232 -0.0164227 0.0097417 0.00978268 0.0148443 -0.0709471 -0.0722057 -0.0667623 -0.146726 0.106079 -0.260399 -0.341079 -0.0896759 -0.0727695 -0.214151 -0.459619 -0.149647 -0.86347 -0.748355 -0.744141 -0.698109 -0.441127 -0.365642 -0.42098 -0.41313 -0.394557 -0.146933 0.148347 0.0873751 0.00774908 0.000885609 0.00743417 -0.0149246 -0.0356784 -0.0337715 0.0840484 -0.166581 0.0143599 -0.442567 -0.24443 -0.275508 -0.39152 -0.713628 -0.688804 -0.58987 -0.612161 -0.473826 -0.729714 -0.647471 -0.260522 -0.423875 -0.6149 -0.694573 -0.547082 -0.272862 0.0181924 0.00835645 0.00354244 0.00154982 0.0099631 -0.00903591 0.0169356 0.0117094 -0.0293141 -0.220063 -0.178545 -0.166015 -0.117905 0.125553 -0.0988407 -0.136556 -0.233774 -0.262762 -0.506076 -0.825982 -1.12933 -0.745118 -0.574087 -0.34928 -0.630707 -0.515296 -0.501812 -0.163656 -0.011925 0.00532707 0.000221402 0.00442804 0.00199262 0.0129326 0.03263 0.0788653 -0.0503907 -0.340777 -0.503635 -0.29324 -0.374598 -0.0409416 -0.225641 -0.0890788 -0.211707 -0.0641606 -0.170724 -0.731223 -1.2031 -0.817441 -0.513885 -0.316098 -0.509953 -0.585949 -0.359293 -0.0740905 -0.0319256 0.0151977 0.00444183 0 0.00352187 0.0134508 0.0297887 0.00489671 0.134372 -0.193105 -0.408897 -0.613725 -0.993637 -0.700598 -0.597364 -0.220368 -0.451265 -0.107093 -0.324933 -0.706687 -1.0513 -0.437119 -0.274078 -0.423009 -0.534431 -0.530571 -0.204843 -0.0285281 -0.0241266 0.00638668 0.000621573 0.00686347 0.00309963 0.0160074 -0.0054948 -0.0979777 0.343754 0.0535848 -0.37077 -0.736824 -0.793005 -0.182467 -0.277814 -0.0584904 -0.15264 -0.0390666 -0.337372 -0.357887 -0.837031 -0.63804 -0.48306 -0.524338 -0.44131 -0.29601 -0.189908 0.00200375 -0.0209216 0.00316784 0.00502154 0.00819188 0.00144043 0.0226012 0.0307292 -0.0396584 0.0968382 0.338697 -0.288414 -0.495588 -0.411111 -0.0098228 0.143449 0.197321 0.359562 -0.387076 -0.467949 -0.193171 -0.274388 -0.454719 -0.826636 -0.452358 -0.297702 -0.146559 -0.00222163 -0.0422526 -0.0134231 -0.0112557 -0.00521317 0.00509225 0.0128734 0.0165534 0.09243 0.0985191 0.00601854 0.184676 0.115609 -0.240837 -0.294741 -0.0848169 0.2112 0.00353319 0.113113 -0.20324 -0.196704 -0.232096 -0.242788 -0.483019 -0.851722 -0.24826 -0.242565 0.0333906 0.0864666 0.00442443 -0.0192824 -0.0061938 0.00415229 0.00442804 0.00566159 0.0832086 0.141603 0.174216 -0.0436762 -0.136648 -0.276813 -0.204483 -0.202754 0.201914 -0.257048 -0.226886 0.101075 -0.158495 -0.371163 -0.297857 -0.475983 -0.51444 -0.337975 -0.127374 -0.0292437 0.158642 0.0469103 0.023505 -0.00337498 0.00717003 0.00487085 0.0104059 0.0104059 0.102626 0.131034 0.124209 -0.0797616 -0.311829 -0.292657 -0.33227 -0.243182 -0.12068 -0.63935 -0.0519395 -0.184789 -0.278908 -0.528717 -0.389019 -0.31212 -0.153023 -0.297844 -0.234451 0.18057 0.231169 0.0848114 0.0603875 0.00774139 0.00429061 0.00797048 0.00177122 0.00154982 0.033436 0.0913421 0.00315462 -0.208687 -0.514805 -0.55504 -0.550758 -0.44418 -0.288475 -0.413884 -0.394645 -0.685724 -0.784084 -0.576061 -0.357476 -0.209547 -0.341002 -0.268912 -0.000626602 0.145998 0.105608 -0.00663576 0.0149682 0.0152438 0.00412578 0.00664207 0.00708487 0.00883885 0.00383006 -0.0237006 0.0368858 -0.139645 -0.277532 -0.467184 -0.399473 -0.293091 -0.348347 -0.423376 -0.5558 -0.443669 -0.408607 -0.66728 -0.679534 -0.409393 -0.0810492 0.0238573 0.0578196 0.121013 0.0482267 -0.00576501 0.00590639 0.0125648 0.00907995 0.00464945 0.00686347 0.00177122 0.000664207 -0.00329625 -0.0305938 -0.0688836 -0.0860623 -0.130613 -0.152023 -0.0823758 0.0190045 0.20045 0.132311 -0.153872 -0.301612 -0.393352 -0.205898 0.0874295 0.158067 0.120812 0.0949622 0.106299 0.0435872 0.00173729 0.00436718 0.00447494 0.00531365 0.000885609 0.00132841 0.00332103 0.00597786 0.00892847 -0.00165337 -0.0039227 -0.0136504 -0.0338619 -0.0339224 -0.00306829 0.0584679 0.136611 0.068825 0.0276405 0.00142519 -0.0400442 0.073555 0.141182 0.142727 0.0289964 0.0535134 0.0281298 0.014295 0.000505687 0.0012438 0.0104466 0.00553506 0.00797048 0.00442804 0.0108487 0.0095203 0.00619926 0.00353283 0.00186713 -0.0187139 -0.0212095 -0.0535468 -0.0752969 -0.105893 -0.000192278 0.0560405 0.0657892 0.121042 0.0339579 -0.0018125 -0.00822389 -0.0138929 -0.0157409 -0.0175898 0.00149426 0.00550989 0.00564134 0.00328644 0.00885609 0.00664207 0.00575646 0.00863469 0.00132841 0.00265683 0.00243542 0.00154982 0.00110701 0.00929235 0.00559287 0.00553824 0.00208608 -0.0310032 -0.0137972 0.0187647 0.026053 0.0144961 0.00519704 0.00574642 0.00688242 0.00987221 -0.0141545 0.00538626 0.00906213 0.00774908 0.0106273 0.00841328 0.00553506 0.00487085 0.00132841 0.00376384 0.000442804 0.00708487 0.00199262 0.00221402 0.0101845 0.00442804 0.00442804 0.000442804 0.00309963 0.0101845 0.00664207 0.00642066 0.00354244 0.00243542 0.00420664 0.00132841 0.0099631 0.0108487 0.00885609 0.00819188 0.00819188 0.0097417 0.00597786 0.00619926 0.00642066 0.00553506 0.00420664 0.00154982 0.0104059 0.00553506 0.00531365 0.000221402 0.000468771 0.000595077 -0.00184148 0.00367074 0.00818066 0.00978085 0.119253 0.00677176 0.0287093 0.0485465 0.0567729 0.018332 0.0042877 0.0124597 0.000960565 0.0104138 0.00487085 0.0097417 0.00752768 0.00199262 0.00841328 0.00243542 0.00841328 0.00420664 0.00841328 0.00199262 0.00575646 0.00774908 0.00618554 -0.00554541 0.00781274 0.0396689 0.0435915 0.0840483 0.168946 0.036063 -0.00620681 0.0206756 0.0266809 -0.0291835 0.0102623 0.0466311 0.036945 0.0145526 0.0233527 0.0109355 0.000742691 0.00287909 0.00243542 0.00841328 0.00509225 0.0108487 0.000221402 0.00287823 0.00398524 0.00852226 0.00403006 0.00762773 0.0472419 0.0941152 0.0237388 0.0557502 0.154832 -0.0429309 0.0178523 0.068698 0.0797333 -0.0889578 -0.12451 -0.0225482 0.00761683 -5.37829e-05 0.05499 0.0372989 0.0151124 0.0114001 0.015262 0.00708259 0.00597786 0.00177122 0.00221402 0.000442804 0.00178121 -0.00238322 -0.00223891 -0.0371468 0.0603013 0.0590869 0.032028 0.196989 0.118002 -0.000897872 0.0447691 0.0553315 -0.034092 -0.233197 -0.372627 -0.240695 -0.0113838 -0.0389189 0.00861076 -0.0512291 -0.0401504 -0.0316853 -0.0209774 0.00200208 0.00907749 0.00464945 0.00350589 0.0044104 0.00848862 -0.0387602 -0.121785 -0.191523 -0.189719 -0.267194 -0.146259 -0.168738 -0.0325359 0.0303125 0.257151 0.0803869 -0.200126 -0.144203 -0.0170928 -0.144878 -0.303062 -0.12352 0.00904535 -0.017742 -0.153142 -0.171788 -0.010053 -0.00469122 0.00819188 0.00819188 0.00597786 0.000264137 -0.0317387 -0.143162 -0.310828 -0.400125 -0.518842 -0.393817 -0.11064 -0.220853 -0.200744 -0.041415 -0.0859891 0.0462556 0.0858097 -0.148813 0.23773 0.21184 -0.213421 -0.108628 -0.148028 0.00928108 -0.129799 -0.205897 -0.0654195 -0.0208288 -0.0142233 0.00110701 0.00827036 -0.0360864 -0.0749026 -0.240012 -0.415416 -0.595748 -0.658309 -0.306926 -0.155798 -0.292021 -0.196854 -0.224088 0.0758053 0.113079 0.346523 0.141792 -0.0536473 -0.056424 -0.319207 -0.153501 -0.0238271 -0.0273746 -0.192067 -0.293934 -0.121216 -0.0696022 -0.0260166 0.00797048 -0.00593903 -0.0225105 -0.129059 -0.472321 -0.492856 -0.436831 -0.464223 -0.0423825 -0.149869 -0.363174 -0.10684 -0.0972938 -0.150606 -0.0843109 0.0991021 -0.0453241 -0.206487 -0.528555 -0.807116 -0.472612 -0.0513181 -0.136243 -0.134732 -0.311852 -0.166934 -0.0950836 -0.0325532 0.0034062 -0.0190045 -0.0269773 -0.237283 -0.494122 -0.479359 -0.30865 -0.105282 0.124443 0.0212188 -0.175937 0.0224021 -0.161533 0.0896545 -0.31191 -0.392584 -0.132629 -0.0841412 -0.589004 -0.698139 -0.497318 -0.266923 -0.0623078 -0.35563 -0.311 -0.0948798 -0.0198854 -0.000860626 0.00144405 -0.00106896 -0.0361716 -0.170682 -0.430458 -0.483552 -0.434246 -0.256584 0.0266928 -0.10754 0.254153 0.100776 -0.145392 -0.213973 -0.559086 -0.643416 -0.623435 -0.0463393 -0.458572 -0.19987 -0.145574 -0.131445 -0.0519834 -0.143839 -0.0279255 -0.102916 -0.08124 -0.0100738 0.000609538 -0.00261197 -0.0318676 -0.107366 -0.0438726 -0.211706 -0.204411 -0.0958222 0.145658 0.0971498 0.147864 0.256885 -0.0223432 -0.354911 -0.657372 -0.411588 -0.446489 0.0831305 0.289451 -0.105399 -0.383051 0.0658733 0.220933 0.150274 0.0158744 -0.133925 -0.0943832 -0.0339944 0.00398524 -0.00629331 -0.035664 0.00476197 0.211225 -0.0655445 -0.183245 0.123273 0.383915 0.302208 0.0650913 -0.0533148 -0.176537 0.0754439 -0.0917638 -0.198661 -0.384559 0.128379 0.30075 0.0376747 -0.407804 -0.0775636 0.360788 0.317291 0.213335 0.00731107 -0.0110352 0.00398524 0.0097417 0.00314456 -0.0481535 0.0832005 0.212448 -0.00349719 -0.217859 0.218601 0.436559 0.24037 -0.167106 -0.0660216 -0.179235 0.1386 0.267065 -0.1713 -0.328361 -0.0218295 0.156345 0.0235058 -0.173652 -0.0900288 0.10824 0.21442 0.194595 0.00158917 0.00943962 0.00797048 0.00309963 0.00841328 -0.0451689 0.00704504 0.0981805 0.127283 0.159304 0.32699 0.524502 0.565339 0.394803 0.193081 0.104559 -0.100224 0.197135 -0.193396 